<?xml version="1.0"?>
<opencv_storage>
<opencv_ml_svm>
  <format>3</format>
  <svmType>C_SVC</svmType>
  <kernel>
    <type>LINEAR</type></kernel>
  <C>1.</C>
  <term_criteria><iterations>100</iterations></term_criteria>
  <var_count>9216</var_count>
  <class_count>2</class_count>
  <class_labels type_id="opencv-matrix">
    <rows>2</rows>
    <cols>1</cols>
    <dt>i</dt>
    <data>
      0 1</data></class_labels>
  <sv_total>1</sv_total>
  <support_vectors>
    <_>
      2.45631236e-06 2.13548083e-06 8.68567383e-07 2.57514466e-06
      1.98153543e-06 1.32376044e-06 2.04029584e-06 1.73572573e-06
      9.86904524e-07 2.89467994e-06 2.60239972e-06 1.84439796e-06
      2.23686493e-06 2.12191253e-06 1.45959655e-06 1.33361789e-06
      1.28616682e-06 7.51657524e-07 1.34315917e-06 1.04191838e-06
      6.37824940e-07 6.21698382e-06 6.34520256e-06 5.49428705e-06
      5.25611358e-06 5.16987711e-06 4.31914805e-06 6.81491247e-06
      6.40447479e-06 5.38407539e-06 8.24112340e-06 7.99646477e-06
      6.65530797e-06 7.62290938e-06 7.57933185e-06 6.01621377e-06
      6.46349145e-06 5.86004626e-06 4.82560654e-06 1.40996497e-06
      6.49234778e-07 -4.54908928e-07 9.02428724e-07 5.51548176e-08
      -1.39476435e-06 2.02945762e-06 1.39352596e-06 -2.50445549e-08
      9.34085449e-07 2.92399164e-07 -1.16254887e-06 9.88997272e-07
      7.78433815e-08 -1.45595152e-06 3.58052171e-06 2.07973244e-06
      -3.91873255e-06 7.33389288e-06 5.52289566e-06 -8.49408207e-06
      7.29055682e-06 5.07747563e-06 -8.97541486e-06 7.92187711e-06
      5.61798561e-06 -8.97848804e-06 5.01685236e-06 2.83676400e-06
      -1.23643094e-05 4.29136571e-06 2.58375076e-06 -1.29968885e-05
      4.37962672e-06 3.36937069e-06 -1.16652791e-05 1.27910221e-06
      4.83855672e-07 -1.22727479e-05 6.02810724e-06 4.52740142e-06
      -8.63925652e-06 3.51335552e-06 3.11744384e-06 -1.68573911e-06
      4.16412377e-06 3.95350753e-06 6.39992436e-07 4.10399753e-06
      3.41874193e-06 1.77319208e-07 3.56019495e-06 2.80710833e-06
      -2.58414076e-07 3.76425987e-06 2.90989669e-06 1.21131176e-08
      3.76758385e-06 3.01175510e-06 2.92906179e-07 4.15781460e-06
      3.02565491e-06 2.09860033e-07 4.17938463e-06 3.17928061e-06
      -6.39967539e-07 3.27463658e-06 1.75117020e-06 -1.77741640e-06
      3.89541128e-06 1.86428372e-06 -1.30157139e-06 5.43124861e-06
      3.95038842e-06 5.93670677e-07 2.54452198e-06 2.35843845e-06
      -5.92389256e-07 2.30698629e-06 2.09286054e-06 -3.44361956e-06
      3.78164486e-06 3.42535145e-06 -3.51921904e-06 2.66297479e-06
      1.69462908e-06 -4.48331139e-06 4.44747093e-06 3.38267250e-06
      -2.81430971e-06 1.79303856e-06 1.13229521e-06 -5.59342743e-06
      7.76255820e-06 6.63058700e-06 -7.10229983e-07 3.12369252e-06
      1.23959478e-06 -5.95472693e-06 2.82032897e-06 8.36375136e-07
      -6.20724632e-06 1.65260735e-06 -2.93057099e-07 -6.64474192e-06
      -1.75331013e-06 -3.08902122e-06 -9.38853736e-06 -1.12939233e-06
      -2.90513094e-06 -8.19752859e-06 -2.48134779e-06 -3.43753209e-06
      -6.34597063e-06 -4.66131269e-06 -5.01811246e-06 -6.76247100e-06
      -1.78918629e-06 -1.66758957e-06 -3.76072921e-06 -1.49187724e-06
      -1.49131972e-06 -2.82670476e-06 -2.66078951e-06 -2.95644691e-06
      -3.81507107e-06 -1.60484046e-06 -1.48486231e-06 -2.68272925e-06
      -1.56081717e-06 -1.39706754e-06 -2.42230431e-06 -2.80027734e-06
      -2.51277652e-06 -2.39989731e-06 -2.88552451e-06 -2.53137569e-06
      -2.15817158e-06 -1.95686516e-06 -1.40377767e-06 -1.28153181e-06
      1.71095758e-06 2.45004685e-06 2.12258192e-06 1.06443958e-05
      1.19168508e-05 1.14261939e-05 8.93573542e-06 1.01205524e-05
      8.95585708e-06 8.04844694e-06 9.05202342e-06 8.40639586e-06
      1.07437809e-05 1.05739400e-05 8.99922452e-06 8.74946909e-06
      8.87024544e-06 7.61728279e-06 8.22076163e-06 8.61593435e-06
      7.38046265e-06 3.98860811e-06 3.98321117e-06 3.05895628e-06
      3.36391918e-06 3.39567487e-06 2.69965813e-06 3.15971783e-06
      2.94455776e-06 2.50848620e-06 6.05297464e-06 5.91857133e-06
      5.13380246e-06 6.14714918e-06 6.09094332e-06 4.95445101e-06
      6.98073654e-06 6.57789406e-06 5.47559284e-06 6.98712802e-06
      6.79208460e-06 5.23163726e-06 7.53018139e-06 7.41541089e-06
      5.61264415e-06 1.08805461e-05 1.06227908e-05 8.80328571e-06
      8.33980630e-06 8.01225633e-06 6.57866030e-06 4.61114178e-06
      4.16475768e-06 2.48660126e-06 3.69619352e-06 3.34756646e-06
      1.27873420e-06 4.84330576e-06 4.66329675e-06 2.21178448e-06
      3.73342073e-06 3.46955380e-06 3.69105891e-07 6.12828944e-06
      4.96123403e-06 1.28602198e-06 1.04492474e-05 9.03205091e-06
      -1.24442693e-06 1.02231543e-05 8.29677174e-06 -6.95202334e-06
      1.12222633e-05 9.29315047e-06 -5.94955554e-06 1.17605778e-05
      9.75372313e-06 -5.64284028e-06 1.12597936e-05 9.86986652e-06
      -6.59454008e-06 1.90050068e-05 1.79102408e-05 2.03974173e-06
      1.87112255e-05 1.72769778e-05 1.25706754e-06 1.41222827e-05
      1.32173991e-05 -7.05926709e-07 1.13322558e-05 1.04249102e-05
      -3.16496812e-06 5.60897342e-06 4.20431525e-06 -7.71722898e-06
      6.06365020e-08 -7.53306892e-07 -5.18396837e-06 -6.65293953e-08
      -1.19281731e-06 -5.04320269e-06 1.21613624e-07 -1.34043660e-06
      -4.65509629e-06 5.00838659e-08 -1.43153318e-06 -4.90661614e-06
      4.01560840e-07 -8.42352733e-07 -4.61373702e-06 -2.59311520e-07
      -1.65502979e-06 -5.55213046e-06 4.16009897e-07 -1.43623777e-06
      -6.07057473e-06 1.32042359e-07 -2.25017425e-06 -6.58835233e-06
      -6.92434583e-07 -2.97465658e-06 -7.05001048e-06 1.30583203e-06
      -9.24008702e-07 -5.09110487e-06 -4.03927402e-07 -1.73881347e-06
      -6.16121224e-06 1.78516575e-06 1.00010243e-06 -5.89299316e-06
      -1.24171299e-06 -1.97888835e-06 -8.63293280e-06 2.43460454e-06
      9.20281650e-07 -6.35877313e-06 3.23537733e-06 1.59183321e-06
      -6.10042844e-06 4.23639449e-06 2.50224002e-06 -5.51360017e-06
      5.07870254e-06 3.54931149e-06 -4.18739864e-06 2.25308736e-06
      4.97441704e-07 -6.94299979e-06 1.71091733e-06 -4.71084405e-07
      -7.30597776e-06 -2.03353216e-06 -4.07973357e-06 -1.10234350e-05
      2.21775213e-06 1.06862508e-07 -6.55502390e-06 -2.32993079e-06
      -4.01620309e-06 -1.01051919e-05 -4.76833111e-06 -6.26112842e-06
      -1.02323038e-05 -7.02551370e-06 -8.20950936e-06 -9.94588027e-06
      -1.02494969e-05 -1.11936333e-05 -1.23242389e-05 -8.86158705e-06
      -9.57597786e-06 -1.02711729e-05 -2.38861730e-06 -2.46316245e-06
      -3.34383208e-06 -8.45124589e-07 -9.44080455e-07 -2.27763121e-06
      1.25402792e-07 -1.40432945e-08 -1.02676393e-06 -6.29902672e-07
      -2.03597878e-07 -5.68068685e-07 -5.45519754e-08 4.99605846e-07
      7.27683471e-07 -1.44337457e-06 -7.79078505e-07 -9.84084181e-07
      1.25682936e-06 1.66225766e-06 1.26541636e-06 5.14950943e-06
      5.94546555e-06 5.72535100e-06 6.39047175e-06 7.19615400e-06
      6.75776209e-06 5.32571266e-06 6.30129671e-06 5.61043453e-06
      7.05297862e-06 6.94022219e-06 5.33155844e-06 5.29288218e-06
      5.09861775e-06 3.69259396e-06 4.71856174e-06 4.56857697e-06
      3.31513752e-06 3.89334082e-06 3.93925302e-06 2.90366256e-06
      1.95130769e-06 1.84388125e-06 1.04179298e-06 4.04107323e-06
      3.62754099e-06 2.63444736e-06 5.31649903e-06 4.60048523e-06
      3.56985970e-06 5.43117221e-06 4.87149828e-06 3.65404640e-06
      4.25166172e-06 3.92536003e-06 2.82711358e-06 6.38140455e-06
      5.98166662e-06 4.51745245e-06 8.45604245e-06 8.29793498e-06
      6.25626217e-06 8.04635238e-06 7.76214347e-06 6.01061765e-06
      4.97473366e-06 4.65620087e-06 3.05720641e-06 5.38664108e-06
      4.84659313e-06 2.91903325e-06 5.27735438e-06 4.86602812e-06
      1.70399710e-06 5.24619963e-06 4.77811636e-06 1.78275434e-06
      2.49763229e-06 1.91750587e-06 -1.74983870e-06 2.86304817e-06
      2.67995779e-06 -1.61421804e-06 5.38972245e-06 4.40033546e-06
      -7.45129182e-06 6.94326445e-06 5.47229456e-06 -9.57760767e-06
      8.92246317e-06 6.70377449e-06 -8.60572072e-06 1.05173058e-05
      8.56737097e-06 -7.51611424e-06 1.16085821e-05 9.11142979e-06
      -7.56924055e-06 1.16122101e-05 9.15232522e-06 -7.55080237e-06
      1.70356670e-05 1.47715555e-05 -1.92123866e-06 1.39003223e-05
      1.23214040e-05 -3.49884272e-06 8.05627587e-06 6.65491280e-06
      -7.56877125e-06 7.89557907e-06 5.68542464e-06 -8.64221602e-06
      3.59566661e-06 2.27443115e-06 -5.30427042e-06 -2.24156906e-06
      -3.44838418e-06 -8.22518268e-06 -4.47823504e-06 -6.09022436e-06
      -1.19644192e-05 -1.83125758e-06 -4.14197666e-06 -1.19613178e-05
      -3.45034573e-06 -6.05359310e-06 -1.40539869e-05 -3.79501193e-06
      -6.53265943e-06 -1.51753648e-05 -1.62180174e-06 -4.84906741e-06
      -1.46418424e-05 -1.19632318e-06 -4.60838646e-06 -1.43290708e-05
      -1.21820403e-06 -4.58208797e-06 -1.51202730e-05 1.74043146e-06
      -1.54195754e-06 -1.17804711e-05 1.97097324e-06 -1.23012524e-06
      -1.33645617e-05 -6.96190682e-07 -2.14090937e-06 -1.45525537e-05
      -1.69071063e-06 -2.72444595e-06 -1.32391651e-05 3.23068798e-06
      1.83384270e-06 -6.52371409e-06 4.00516410e-06 1.76707783e-06
      -6.70109876e-06 2.69421412e-06 9.09903918e-07 -7.20532398e-06
      1.69910857e-06 -4.59469014e-08 -7.73209285e-06 -1.10101314e-06
      -2.95864220e-06 -1.00729367e-05 -2.45888259e-06 -4.52338918e-06
      -1.12126409e-05 -1.53656515e-06 -3.74995398e-06 -1.09190350e-05
      -3.32968148e-06 -5.63202320e-06 -1.22803731e-05 -5.59788032e-06
      -7.36705806e-06 -1.34530310e-05 -8.22704806e-06 -9.25490986e-06
      -1.38969690e-05 -8.96669826e-06 -9.77974469e-06 -1.17975296e-05
      -9.06412060e-06 -9.71833470e-06 -1.13551278e-05 -9.23030348e-06
      -1.00240904e-05 -1.14015711e-05 -8.04088904e-06 -9.08100537e-06
      -9.98309588e-06 -6.81132803e-07 -8.60418083e-07 -2.12911550e-06
      1.22387610e-06 5.45572448e-07 -3.79629341e-07 2.64743039e-06
      1.98745693e-06 1.39141946e-06 -1.84907378e-06 -2.06306618e-06
      -2.35824473e-06 -3.11487952e-06 -3.01755631e-06 -3.11156759e-06
      7.46511262e-07 1.19979336e-06 8.49939568e-07 1.03113621e-06
      1.43982413e-06 1.29495822e-06 5.30678244e-06 5.73369562e-06
      5.33887669e-06 1.52490429e-06 1.72735986e-06 1.14308273e-06
      1.05738545e-05 1.04199262e-05 9.49269815e-06 9.22575782e-06
      8.98248345e-06 7.75868830e-06 1.61682340e-06 1.69172165e-06
      5.04554748e-07 1.18622836e-06 1.22614722e-06 1.87362687e-07
      2.84964517e-06 2.67600376e-06 1.65719644e-06 4.55547342e-06
      4.16600869e-06 3.05800245e-06 7.29586191e-06 6.72491797e-06
      5.36427706e-06 6.24417498e-06 5.72565796e-06 4.30571481e-06
      7.07330537e-06 7.07306208e-06 5.20979575e-06 8.15580188e-06
      7.99718418e-06 6.09209519e-06 6.64247909e-06 6.82944255e-06
      4.95136692e-06 3.86209604e-06 3.30530270e-06 1.03274215e-06
      3.62518017e-06 3.13136343e-06 1.05837069e-06 3.51907465e-06
      3.32177751e-06 1.27244607e-06 2.43565114e-06 2.45073534e-06
      -1.98955362e-07 3.61847060e-06 3.69645932e-06 7.02431578e-07
      3.01566070e-06 3.35724008e-06 -4.82525820e-07 1.91070171e-06
      2.05490164e-06 -2.84664952e-06 4.56617681e-06 4.02620208e-06
      -9.72641010e-06 5.00702299e-06 3.02119747e-06 -1.21621961e-05
      4.72069360e-06 2.43886620e-06 -1.43044463e-05 8.26249561e-06
      5.74493106e-06 -1.26640343e-05 1.18095240e-05 9.18849128e-06
      -1.05313402e-05 1.13327451e-05 8.97782502e-06 -1.06225962e-05
      8.78594619e-06 6.43695557e-06 -1.34815173e-05 7.22945515e-06
      4.21074219e-06 -1.57223694e-05 1.17033312e-06 -1.28350428e-06
      -1.84808468e-05 5.72583531e-06 3.23247241e-06 -1.37151046e-05
      7.34557148e-07 -1.71315151e-06 -1.50530332e-05 -4.10640314e-06
      -5.57278599e-06 -1.10297678e-05 -1.42795386e-06 -3.10321639e-06
      -1.13279375e-05 -4.75418233e-07 -2.60391653e-06 -1.25858051e-05
      1.21862229e-07 -1.91451772e-06 -1.19076940e-05 4.40589332e-07
      -1.54895747e-06 -1.17394820e-05 2.78819903e-06 6.64258664e-07
      -9.09941900e-06 2.07001654e-06 -5.31710249e-08 -1.04607261e-05
      3.50177470e-06 1.28334011e-06 -9.09178743e-06 4.62110802e-06
      1.82181577e-06 -9.15418605e-06 6.35131164e-06 3.38198174e-06
      -1.03300072e-05 2.06350296e-06 4.18511007e-07 -1.31789238e-05
      9.28559132e-07 -4.82312487e-07 -1.24487133e-05 5.67041661e-06
      4.52650966e-06 -4.26538782e-06 4.81199231e-06 3.16851197e-06
      -5.01076829e-06 3.59039996e-06 1.61931825e-06 -6.17291198e-06
      1.08490156e-06 -4.21219596e-07 -8.09663925e-06 7.34407593e-07
      -7.28400551e-07 -8.14157283e-06 4.64897232e-09 -1.53058909e-06
      -8.46573676e-06 -4.08467440e-06 -6.01075362e-06 -1.27885887e-05
      -6.44657030e-06 -8.22960737e-06 -1.48826648e-05 -8.51624281e-06
      -1.03667353e-05 -1.62068063e-05 -1.07596279e-05 -1.21610856e-05
      -1.73829430e-05 -1.22370975e-05 -1.37853322e-05 -1.54722311e-05
      -9.08940001e-06 -1.03225539e-05 -1.13236874e-05 -7.81170911e-06
      -8.81577034e-06 -9.90477929e-06 -6.38940264e-06 -7.59243221e-06
      -8.53640358e-06 -3.72742011e-06 -4.85455257e-06 -6.12598160e-06
      1.40526981e-06 1.05742151e-06 8.81422082e-08 -1.82691531e-06
      -1.86299462e-06 -2.38735015e-06 -2.04286539e-06 -2.39143856e-06
      -2.20618131e-06 -4.63201377e-06 -5.22796972e-06 -4.66311212e-06
      -4.99611087e-06 -5.26046324e-06 -4.98031068e-06 -2.51156462e-06
      -2.58818318e-06 -2.68404710e-06 -1.54615702e-06 -1.19491779e-06
      -1.49018115e-06 5.47786522e-06 5.96876089e-06 5.61902561e-06
      7.91518596e-06 7.60256717e-06 6.59988473e-06 6.64964637e-06
      6.37975563e-06 5.28366490e-06 7.29616022e-06 6.97422956e-06
      6.17855630e-06 2.46072591e-06 2.16643411e-06 1.49402672e-06
      5.22159871e-06 4.88497199e-06 4.29294323e-06 4.47204820e-06
      4.13906719e-06 3.48419053e-06 5.94825860e-06 5.29976842e-06
      4.26195356e-06 6.97603855e-06 6.96785446e-06 5.27092334e-06
      5.97386406e-06 5.72495492e-06 4.41177963e-06 5.72415274e-06
      5.87789782e-06 4.01040597e-06 2.17068259e-06 2.12370492e-06
      4.32771714e-07 1.75952027e-06 1.77852507e-06 5.77656465e-08
      6.14934777e-07 8.66890275e-07 -1.15361104e-06 7.59640272e-07
      1.32567527e-06 -9.30284330e-07 1.27292606e-06 1.96902101e-06
      -1.02060619e-06 3.66247582e-06 4.63574679e-06 3.94953531e-07
      4.45890191e-06 4.93615471e-06 -4.46795774e-08 1.27987244e-06
      1.51699930e-06 -5.00427313e-06 2.15445220e-06 1.44236128e-06
      -1.41120654e-05 6.06711183e-06 4.31496846e-06 -1.35386899e-05
      6.37018775e-06 4.23508891e-06 -1.48089803e-05 7.06148649e-06
      4.80236031e-06 -1.51653376e-05 9.01333169e-06 6.59578336e-06
      -1.42847575e-05 8.82956101e-06 6.08560958e-06 -1.44973774e-05
      5.54781536e-06 2.33332798e-06 -1.81570995e-05 4.72023748e-06
      1.27204873e-06 -1.92571879e-05 2.44480111e-06 -6.94475773e-07
      -1.89868315e-05 3.04721567e-07 -2.96846724e-06 -2.01743023e-05
      4.75753438e-07 -2.75054867e-06 -1.91347663e-05 -3.51931340e-06
      -6.01697775e-06 -1.37988936e-05 1.58918670e-06 -3.41386880e-07
      -1.00289335e-05 1.03576167e-06 -4.84625104e-07 -1.01221767e-05
      1.99167107e-06 4.14254913e-07 -8.89077364e-06 3.44495425e-06
      1.71775434e-06 -7.10275481e-06 5.94729318e-06 4.27953955e-06
      -4.77306321e-06 3.66240829e-06 2.10386543e-06 -9.15155852e-06
      2.81007578e-06 1.09063524e-06 -9.85495990e-06 5.30802708e-06
      3.21085759e-06 -9.16077261e-06 8.81584037e-06 6.69881865e-06
      -7.86132568e-06 3.59532623e-06 1.56425233e-06 -1.23371974e-05
      3.18192770e-06 1.61030709e-06 -1.16887404e-05 4.10785515e-06
      3.18337220e-06 -7.49244600e-06 6.96723646e-06 5.65574555e-06
      -2.23306915e-06 4.75200977e-06 3.40303268e-06 -4.67796053e-06
      2.06563709e-06 1.11208351e-06 -5.49704691e-06 -3.39246178e-08
      -7.54105542e-07 -6.79300956e-06 -4.31086346e-06 -4.72510646e-06
      -9.69038592e-06 -6.75159936e-06 -7.26729877e-06 -1.17472346e-05
      -8.05815762e-06 -9.03890214e-06 -1.37925426e-05 -7.19347508e-06
      -8.60409818e-06 -1.32983696e-05 -6.77620619e-06 -8.27593703e-06
      -1.24955204e-05 -9.18520982e-06 -1.03616094e-05 -1.25407332e-05
      -9.51973470e-06 -1.07468713e-05 -1.18833586e-05 -8.73220233e-06
      -9.95801020e-06 -1.08730255e-05 -9.21499213e-06 -1.01220312e-05
      -1.05848530e-05 -9.58482633e-06 -1.04212731e-05 -1.08440172e-05
      -5.58292140e-06 -5.74915794e-06 -5.93606137e-06 -2.01846956e-06
      -2.64280652e-06 -2.64362052e-06 2.89352556e-07 -4.13405189e-07
      -2.70698564e-07 -2.50545304e-06 -3.14814679e-06 -3.08393805e-06
      -3.48399021e-06 -3.62909873e-06 -3.90976811e-06 -2.97575366e-06
      -3.01861337e-06 -3.29575300e-06 -1.75605555e-06 -1.69478017e-06
      -2.20676179e-06 -1.41810881e-06 -1.52814687e-06 -2.07378798e-06
      7.53743598e-06 7.56184727e-06 6.33921081e-06 5.59147247e-06
      5.60506851e-06 4.68487497e-06 6.45623277e-06 6.16421539e-06
      5.68855057e-06 6.72406986e-06 6.18737795e-06 5.67209872e-06
      3.77488050e-06 3.22989149e-06 2.78565426e-06 3.72566274e-06
      3.40915403e-06 3.12543034e-06 5.44352179e-06 4.96572102e-06
      3.85670910e-06 5.83512656e-06 5.51946550e-06 4.43150611e-06
      4.64697359e-06 4.58234717e-06 3.14850990e-06 1.21200287e-06
      1.70088219e-06 4.97019187e-07 -1.13874012e-06 -3.21553699e-07
      -1.60989327e-06 7.73639044e-07 1.55011082e-06 -5.54495728e-07
      3.66720201e-07 1.07899177e-06 -1.49645825e-06 5.49092420e-07
      1.22740346e-06 -1.23651398e-06 2.01848002e-06 2.82361680e-06
      -5.77635944e-07 4.53598659e-06 5.15555257e-06 8.95430674e-07
      4.63466677e-06 5.15048168e-06 -2.66365930e-07 3.68586348e-06
      3.74283650e-06 -3.59801379e-06 5.55667611e-06 4.89191598e-06
      -1.23699601e-05 5.79336211e-06 3.77483866e-06 -1.47439450e-05
      5.61195475e-06 3.58721491e-06 -1.60797117e-05 7.45442048e-06
      5.22987148e-06 -1.49046791e-05 1.14167460e-05 8.99275528e-06
      -1.24330754e-05 8.57284704e-06 5.59296814e-06 -1.54618920e-05
      5.46363208e-06 1.92469747e-06 -1.87147161e-05 6.47258003e-06
      2.70247324e-06 -1.80652059e-05 5.43803571e-06 1.92354810e-06
      -1.79158433e-05 1.88508000e-06 -1.50851770e-06 -1.97776317e-05
      7.77724472e-06 4.55235477e-06 -1.26080049e-05 5.98945280e-06
      3.93931759e-06 -9.88692500e-06 8.82700169e-06 8.05759009e-06
      -1.36628671e-06 1.03633247e-05 9.86726263e-06 1.18606283e-06
      1.16355495e-05 1.12836378e-05 2.38481857e-06 1.07487267e-05
      1.04578057e-05 1.57557474e-06 1.17756626e-05 1.12169055e-05
      1.12517250e-06 1.06817288e-05 9.90456556e-06 -4.20309220e-07
      8.37616699e-06 7.99786540e-06 -2.59331887e-06 8.23083428e-06
      7.09309688e-06 -5.73479247e-06 8.46588864e-06 6.98398935e-06
      -6.38800293e-06 5.41086138e-06 3.76181015e-06 -9.31604427e-06
      5.59226464e-06 4.15375416e-06 -8.40616121e-06 5.88101648e-06
      5.05926710e-06 -6.05789728e-06 5.86080705e-06 5.62749983e-06
      -1.43790919e-06 4.94727010e-06 4.75572733e-06 -1.73346075e-06
      6.33892341e-07 8.13204963e-07 -3.73343960e-06 -2.11317774e-06
      -1.35651817e-06 -4.66769916e-06 -3.42579733e-06 -2.62710319e-06
      -5.65116852e-06 -3.38827545e-06 -3.09961820e-06 -6.45797354e-06
      -4.82418136e-06 -4.68899270e-06 -8.28338125e-06 -2.93328549e-06
      -2.91214792e-06 -6.45650152e-06 -2.97840643e-06 -2.87529588e-06
      -5.72992076e-06 -4.48120227e-06 -4.64995264e-06 -5.27003886e-06
      -1.17632271e-05 -1.24236458e-05 -1.21274843e-05 -1.12655753e-05
      -1.19832503e-05 -1.18020816e-05 -9.62624199e-06 -1.00353809e-05
      -9.90587705e-06 -1.06575908e-05 -1.10477868e-05 -1.11310601e-05
      -4.49672416e-06 -4.52460426e-06 -4.49458275e-06 -1.42819192e-06
      -1.94451536e-06 -1.56193096e-06 1.72134964e-08 -4.83449071e-07
      -3.66392385e-07 -2.07044863e-07 -5.71361568e-07 -3.78565119e-07
      -1.85064653e-06 -1.87540070e-06 -1.90914693e-06 -3.05773256e-06
      -3.13134046e-06 -3.68188307e-06 -3.29578620e-06 -3.30442231e-06
      -3.78413210e-06 -2.24654559e-06 -2.03005038e-06 -2.79669052e-06
      1.25408051e-05 1.23283698e-05 1.07526275e-05 1.16911333e-05
      1.09389612e-05 1.00163088e-05 1.00715706e-05 9.72777889e-06
      8.73737827e-06 1.15682797e-05 1.12556982e-05 1.02198828e-05
      1.14974800e-05 1.09958328e-05 9.92595506e-06 1.20229997e-05
      1.15362718e-05 1.10681931e-05 3.49934476e-06 3.46261413e-06
      2.97725364e-06 5.58591637e-06 5.73248235e-06 4.77102685e-06
      3.89147954e-06 4.03452168e-06 2.67979772e-06 1.74690604e-06
      1.51791971e-06 -6.92139110e-07 2.79502785e-07 1.30006129e-06
      -1.46478305e-06 8.33136085e-07 1.95436951e-06 -7.88714090e-07
      4.71121041e-07 1.27969713e-06 -1.87258991e-06 2.04876665e-06
      2.80033623e-06 -3.06437278e-06 3.57963700e-06 3.85420344e-06
      -2.60144134e-06 3.24225402e-06 3.76920161e-06 -3.59516321e-06
      3.70542875e-06 3.77876290e-06 -4.25639973e-06 2.24957785e-06
      2.24160635e-06 -7.82129882e-06 4.49169374e-06 3.41462987e-06
      -1.58834791e-05 9.40730115e-06 7.26917051e-06 -1.40325428e-05
      1.03437233e-05 8.08518871e-06 -1.39984359e-05 6.53930374e-06
      4.08126607e-06 -1.80035204e-05 1.37700863e-05 1.12341595e-05
      -9.98805990e-06 9.15704823e-06 6.32601223e-06 -1.47184455e-05
      6.51031587e-06 3.22087590e-06 -1.74711422e-05 7.17284047e-06
      3.94193012e-06 -1.69469331e-05 7.72384101e-06 4.03851027e-06
      -1.58811399e-05 1.37198560e-06 -2.00703198e-06 -2.00873092e-05
      2.16912531e-06 -7.61418676e-07 -1.90345399e-05 5.28491091e-06
      3.36471135e-06 -1.48234903e-05 3.87084492e-06 3.97817757e-06
      -5.62704599e-06 6.03307535e-06 6.30507611e-06 -2.44999774e-06
      7.47112108e-06 7.47583363e-06 -1.38119651e-06 8.92537446e-06
      8.96521033e-06 -4.80452570e-07 7.56675581e-06 7.65396271e-06
      -3.42917428e-06 9.00028226e-06 9.00922078e-06 -1.13219585e-06
      8.76933882e-06 8.85089867e-06 -2.11533711e-06 9.39694837e-06
      8.73947101e-06 -4.29843112e-06 1.06379339e-05 9.69451321e-06
      -3.46847901e-06 1.06578455e-05 9.51749371e-06 -3.53044561e-06
      9.29803718e-06 8.51233290e-06 -3.21914945e-06 7.31083082e-06
      7.09319056e-06 -3.20692516e-06 7.50810705e-06 7.88551461e-06
      1.39499366e-06 2.91522724e-06 3.68895076e-06 -6.30369755e-07
      -6.51121638e-07 3.93166061e-07 -2.28482531e-06 -2.01801754e-06
      -4.01001103e-07 -2.03581976e-06 -1.72426394e-06 4.25565901e-07
      -6.95763958e-07 -1.20094285e-06 6.93935760e-07 -5.62372009e-07
      -1.43709815e-06 9.91132012e-08 -1.77291440e-06 -2.08991173e-06
      -4.59677779e-07 -2.61148261e-06 -1.77464472e-06 -6.99137388e-07
      -2.21418350e-06 -2.05135575e-06 -1.81174016e-06 -1.55982252e-06
      -5.04938271e-06 -4.93326979e-06 -3.58110356e-06 -7.97939174e-06
      -8.09112043e-06 -7.67287293e-06 -7.71836494e-06 -8.07507058e-06
      -7.70155475e-06 -7.00736609e-06 -7.67955044e-06 -7.19164973e-06
      -3.99863529e-06 -3.92535503e-06 -4.11533574e-06 -1.97199120e-06
      -1.95319944e-06 -2.30664250e-06 7.01712622e-07 3.12338386e-07
      3.90288164e-07 -1.65544890e-07 -2.81804489e-07 -4.96645441e-07
      1.13422743e-07 -1.91975118e-07 5.38601661e-08 -2.40353916e-06
      -2.42806527e-06 -2.43271143e-06 4.19421838e-07 4.15180835e-07
      -9.99434988e-08 -2.97094607e-06 -2.82183987e-06 -3.49763536e-06
      1.07229507e-05 1.05129920e-05 9.10970084e-06 1.04330875e-05
      1.00724665e-05 8.59825377e-06 1.09121493e-05 1.08801651e-05
      9.35315802e-06 1.12565922e-05 1.06466759e-05 9.01017847e-06
      1.21814192e-05 1.15000057e-05 1.05852805e-05 9.48816250e-06
      9.38091125e-06 8.62678280e-06 2.91865467e-06 2.95545738e-06
      2.32996285e-06 3.97415533e-06 4.23912434e-06 3.66514337e-06
      2.46746572e-06 2.28189060e-06 3.84412601e-07 6.53269524e-07
      9.02178783e-07 -1.08013114e-06 7.78284033e-08 8.06080379e-07
      -9.53877134e-07 5.01836041e-07 1.40376085e-06 -6.04434149e-07
      -1.90183496e-08 9.56783651e-07 -2.79933192e-06 1.79779840e-06
      2.92190430e-06 -3.12105612e-06 1.51046572e-06 2.18488140e-06
      -4.53930488e-06 1.64824019e-06 2.33840365e-06 -4.91966421e-06
      3.81311270e-06 4.50917651e-06 -3.24449024e-06 5.25463656e-06
      5.09058555e-06 -6.42509667e-06 8.75920705e-06 8.06511525e-06
      -1.16430310e-05 9.03341970e-06 7.06048650e-06 -1.43334864e-05
      1.07395435e-05 8.44193346e-06 -1.42874987e-05 9.09442133e-06
      6.32076171e-06 -1.55394227e-05 1.12878024e-05 8.82071072e-06
      -1.34963966e-05 6.86184103e-06 4.11757037e-06 -1.66390819e-05
      5.65789742e-06 2.45672231e-06 -1.79494800e-05 5.63167760e-06
      2.58146952e-06 -1.76743870e-05 3.64283756e-06 4.55862647e-07
      -1.97560639e-05 1.27518263e-06 -1.33853894e-06 -2.03132622e-05
      1.01620435e-06 -8.82121185e-07 -1.87245423e-05 3.62837523e-06
      1.90033199e-06 -1.72608652e-05 6.85768100e-06 6.56692964e-06
      -9.70089332e-06 7.89191290e-06 8.35939954e-06 -1.81590917e-06
      7.12694009e-06 7.41103986e-06 -2.42332862e-06 7.57253792e-06
      7.57353246e-06 -3.39787471e-06 7.13590862e-06 6.84468159e-06
      -4.84274869e-06 7.06559058e-06 6.83349435e-06 -4.33588229e-06
      7.84513668e-06 7.42948851e-06 -6.16657371e-06 9.44529711e-06
      8.85892587e-06 -5.92677543e-06 9.43164923e-06 8.24717154e-06
      -5.68425867e-06 6.48361447e-06 5.72584622e-06 -6.25971506e-06
      5.13807981e-06 4.88407477e-06 -5.36959215e-06 2.01222156e-06
      2.14485794e-06 -7.19178388e-06 -1.80634288e-06 -9.67483629e-07
      -7.95566393e-06 -3.39895792e-07 5.84759732e-07 -2.78403354e-06
      -8.72835130e-07 2.21855245e-07 -2.27299847e-06 -6.17298610e-07
      5.47685602e-07 -7.33609170e-07 3.69142725e-07 1.65447386e-06
      2.89369325e-07 1.74972899e-06 2.97401971e-06 1.81050473e-06
      2.15728073e-06 3.62429500e-06 1.96951351e-06 2.10844382e-06
      3.74090700e-06 2.05669085e-06 2.59894773e-06 4.22261792e-06
      2.64260325e-06 2.05020092e-06 3.49640368e-06 2.55370674e-06
      3.76937965e-06 4.49978506e-06 6.03523995e-06 -1.64298774e-06
      -1.32352739e-06 -3.01931124e-07 -8.93134739e-08 -2.35977836e-07
      2.21192991e-07 -2.37577251e-06 -2.29855550e-06 -1.81305074e-06
      -3.43925876e-06 -3.23029008e-06 -2.70072906e-06 3.10171032e-07
      3.77126952e-07 4.66258768e-07 1.29138539e-06 1.01325907e-06
      1.09480447e-06 1.84898192e-06 1.55912892e-06 1.38615428e-06
      2.50479320e-06 2.44786702e-06 2.43385284e-06 1.32616992e-06
      1.19600725e-06 1.04441915e-06 -6.94857420e-07 -7.55819997e-07
      -1.09399298e-06 -1.69609564e-06 -1.88032789e-06 -1.96591850e-06
      1.54157624e-05 1.59405936e-05 1.36868330e-05 1.44927344e-05
      1.55215839e-05 1.35991586e-05 1.44821715e-05 1.51883723e-05
      1.35371638e-05 1.21414641e-05 1.21078892e-05 1.12662301e-05
      9.99473468e-06 1.03244965e-05 9.02874399e-06 1.15416533e-05
      1.17768368e-05 1.05881445e-05 6.06720596e-06 6.59141369e-06
      5.42535736e-06 9.57140969e-07 1.57612374e-06 1.38114260e-07
      -9.91932652e-08 2.61411572e-07 -1.44531975e-06 -3.14323506e-06
      -2.46982745e-06 -4.14306805e-06 -1.09366761e-06 -1.59985191e-07
      -2.20118659e-06 -2.02184037e-06 -6.27955387e-07 -2.72453258e-06
      -4.01440815e-07 7.46262401e-07 -2.70433156e-06 4.86831880e-07
      1.80574909e-06 -3.72995055e-06 1.21929838e-06 2.29310422e-06
      -4.02646447e-06 2.37184622e-06 3.24580310e-06 -4.11855353e-06
      3.74655883e-06 4.16532203e-06 -3.28754481e-06 6.24094582e-06
      6.28471707e-06 -8.37412335e-06 9.95142273e-06 8.93046126e-06
      -1.09922239e-05 1.00821298e-05 7.83176165e-06 -1.39206659e-05
      1.18712542e-05 9.36671222e-06 -1.33582016e-05 8.55757298e-06
      6.33611307e-06 -1.59567844e-05 1.09523489e-05 8.33959166e-06
      -1.41233504e-05 6.11315363e-06 3.26282043e-06 -1.80164479e-05
      3.47435980e-06 4.51095332e-07 -2.00851027e-05 3.61800971e-06
      6.99854411e-07 -1.95848424e-05 3.19227024e-06 5.13908674e-07
      -2.03221425e-05 2.24202768e-06 8.88102306e-07 -1.79639519e-05
      5.91895832e-06 5.39660914e-06 -1.19112156e-05 9.11341976e-06
      7.67209531e-06 -1.30946337e-05 1.18131793e-05 1.06806128e-05
      -1.04749506e-05 1.02598924e-05 1.02004196e-05 -2.27351211e-06
      5.49686774e-06 5.22960818e-06 -6.15602175e-06 3.21196148e-06
      2.17129309e-06 -1.09969633e-05 2.41823204e-06 1.32529908e-06
      -1.16677247e-05 2.05478136e-06 1.26096893e-06 -1.11904983e-05
      2.75617822e-06 1.87599983e-06 -1.36925455e-05 3.12797852e-06
      2.00940735e-06 -1.29331174e-05 3.08434483e-06 1.67399310e-06
      -1.21470212e-05 4.07126390e-06 2.93943503e-06 -9.32119110e-06
      5.78961533e-07 -1.77727330e-07 -1.00904699e-05 -1.05739696e-06
      -1.10849896e-06 -1.06802509e-05 -2.26755719e-06 -2.50211588e-06
      -1.09584553e-05 -2.22683911e-06 -2.01259081e-06 -6.45273531e-06
      -2.30727233e-06 -2.20364223e-06 -5.76057528e-06 -3.41108716e-06
      -3.02072112e-06 -5.38800168e-06 -4.10821076e-06 -4.20339575e-06
      -6.88653336e-06 -4.24424388e-06 -4.81484767e-06 -7.87486078e-06
      -3.03193315e-06 -3.22326741e-06 -6.33812442e-06 -3.00835563e-06
      -2.98142254e-06 -5.97554663e-06 -2.75623120e-06 -2.33968308e-06
      -5.37509186e-06 1.28082172e-06 1.88525848e-06 -3.72622992e-07
      4.91118590e-06 5.54342705e-06 6.74947569e-06 3.74480533e-06
      4.07879361e-06 5.30867283e-06 7.12153110e-08 3.41379689e-08
      1.27981912e-06 -3.59236742e-06 -3.69373993e-06 -3.05852518e-06
      9.86335294e-07 7.78837148e-07 1.31569436e-06 1.40331167e-06
      1.30674812e-06 1.60776403e-06 2.85309579e-06 2.93290850e-06
      2.91595165e-06 2.66586540e-06 2.63658262e-06 2.27472879e-06
      3.40409088e-06 3.67673329e-06 3.11153053e-06 1.70588044e-06
      2.14686520e-06 1.64638789e-06 3.00982401e-06 3.17188665e-06
      2.92273535e-06 2.79178130e-06 3.26427084e-06 3.28956298e-06
      1.11834142e-05 1.28538268e-05 1.17028439e-05 9.79531706e-06
      1.12074067e-05 1.09297689e-05 9.71506779e-06 1.03021785e-05
      1.01424339e-05 8.62272191e-06 9.22131130e-06 8.87519400e-06
      9.81002086e-06 1.06775133e-05 1.03813363e-05 2.35482980e-06
      3.97349277e-06 4.22408175e-06 2.18900183e-07 1.98817088e-06
      1.70022690e-06 -1.93509709e-06 -4.24296758e-07 -1.08975314e-06
      -6.83612598e-06 -5.26660824e-06 -6.11130417e-06 -4.32465049e-06
      -3.07500636e-06 -4.36692562e-06 -2.48483275e-06 -1.24061478e-06
      -2.39265728e-06 -2.54560359e-06 -1.08631787e-06 -2.08417737e-06
      -5.47248817e-07 1.02668957e-06 -2.02918045e-06 2.21855134e-06
      3.74606543e-06 -1.74422132e-06 3.37106826e-06 4.50617472e-06
      -1.43988143e-06 3.08327549e-06 4.26712950e-06 -3.43762508e-06
      1.47925743e-06 2.05622473e-06 -5.51168023e-06 8.11970222e-06
      8.08079858e-06 -8.46671446e-06 9.19057311e-06 8.27329677e-06
      -1.20053564e-05 8.90795491e-06 7.25071686e-06 -1.45916320e-05
      8.10699476e-06 6.12056192e-06 -1.56592050e-05 9.18013211e-06
      7.06317178e-06 -1.50563583e-05 1.06491516e-05 8.30152931e-06
      -1.45265285e-05 4.32649722e-06 2.00153886e-06 -1.99477399e-05
      4.29369402e-06 2.16353556e-06 -1.82069034e-05 1.68187603e-06
      -5.17796877e-07 -2.04772005e-05 4.27340910e-06 2.30315732e-06
      -1.83198881e-05 8.28773591e-06 6.87859574e-06 -1.08950062e-05
      6.14557712e-06 4.72992724e-06 -1.43652514e-05 1.14487739e-05
      9.57713473e-06 -1.40367911e-05 7.12531846e-06 5.42444877e-06
      -1.82562981e-05 8.67682047e-06 8.28545853e-06 -9.66664629e-06
      5.68173618e-06 5.92465540e-06 -6.38033134e-06 5.04070522e-06
      5.18594470e-06 -6.30675731e-06 2.56812473e-06 2.90985145e-06
      -7.93777417e-06 2.64570440e-06 2.58286104e-06 -1.10262554e-05
      4.30106593e-06 3.73207899e-06 -1.12803891e-05 3.49155243e-06
      2.16285480e-06 -1.29223326e-05 3.12559769e-06 1.32492096e-06
      -1.33307831e-05 3.30157241e-06 1.85430122e-06 -1.12641528e-05
      2.05926725e-07 -9.34322998e-07 -1.10897372e-05 -7.46032583e-07
      -1.73229489e-06 -1.14122386e-05 -1.99442434e-06 -2.53316534e-06
      -1.17390091e-05 -2.44865964e-06 -3.19516516e-06 -9.53919516e-06
      -2.40937879e-06 -2.68913072e-06 -7.18661158e-06 -3.41721102e-06
      -3.52151369e-06 -7.18687170e-06 -1.51848985e-06 -1.82559165e-06
      -4.80326253e-06 -2.63840479e-06 -3.07460300e-06 -5.43927672e-06
      -2.27667078e-06 -2.56259545e-06 -4.75815114e-06 -1.12105192e-06
      -8.38647054e-07 -3.31323895e-06 5.10733514e-07 9.75070748e-07
      -1.68068209e-06 6.72696274e-07 9.72845328e-07 -1.48605454e-06
      -2.12759528e-06 -1.81961718e-06 -1.24133726e-06 -1.38443932e-06
      -6.27819645e-07 6.26169765e-07 -3.70061207e-06 -3.80596430e-06
      -2.07104449e-06 -8.27509666e-06 -9.04145782e-06 -8.35469928e-06
      -4.88770320e-06 -5.77200262e-06 -5.28852388e-06 -6.78445929e-07
      -6.33794343e-07 -7.94902121e-07 3.27701514e-06 2.85977262e-06
      2.49750337e-06 1.76630056e-06 1.21876371e-06 6.45541093e-07
      -2.63407713e-07 -8.79366894e-07 -1.56546878e-06 -6.07000220e-06
      -6.81431084e-06 -6.56992006e-06 -6.40482040e-06 -6.20360242e-06
      -6.43176145e-06 -1.35159596e-07 6.15884915e-07 2.16360732e-07
      8.89597595e-06 1.07526530e-05 9.97870939e-06 7.21064771e-06
      8.89766034e-06 8.39318363e-06 7.08018115e-06 9.36526521e-06
      9.29509588e-06 6.60670321e-06 8.87601254e-06 8.81619962e-06
      4.53523171e-06 6.78340848e-06 6.86234080e-06 -1.06010225e-06
      7.47179286e-07 7.01477347e-07 -1.14781483e-06 6.67797508e-07
      2.03123776e-07 -1.27018825e-06 4.04237596e-07 -7.88466537e-09
      -6.12767599e-06 -4.64406276e-06 -5.16633418e-06 -6.02933142e-06
      -4.84074280e-06 -5.53006021e-06 -7.14588577e-06 -6.13284101e-06
      -6.30939940e-06 -6.05275272e-06 -4.61558966e-06 -4.76744799e-06
      -3.29764657e-06 -1.89771333e-06 -3.87872342e-06 -6.14808073e-07
      5.27467137e-07 -2.95312566e-06 2.26385487e-06 3.53863516e-06
      -1.98035491e-06 2.47243520e-06 3.26803251e-06 -3.81552627e-06
      3.80409642e-06 4.33185460e-06 -3.62820833e-06 8.19079196e-06
      7.84761414e-06 -1.06425186e-05 8.14506348e-06 7.35692902e-06
      -1.37745783e-05 8.84225483e-06 7.32032549e-06 -1.51386103e-05
      9.28506688e-06 7.50445042e-06 -1.49571706e-05 1.12228026e-05
      9.18269325e-06 -1.36926110e-05 1.37292018e-05 1.17190903e-05
      -1.17928257e-05 1.73100889e-05 1.52913381e-05 -7.59393151e-06
      1.17306708e-05 9.33251522e-06 -1.25099132e-05 7.91256934e-06
      4.98132340e-06 -1.54595364e-05 8.58835028e-06 6.12651229e-06
      -1.45608255e-05 1.29094269e-05 1.09669309e-05 -8.44460556e-06
      1.08971653e-05 8.65272614e-06 -1.46573839e-05 1.27847761e-05
      1.01577962e-05 -1.88820213e-05 1.02334889e-05 7.35339700e-06
      -2.30765982e-05 8.80052175e-06 6.78219703e-06 -2.01269704e-05
      -1.78584287e-07 -9.39138317e-07 -1.43911839e-05 5.11046619e-06
      4.65356106e-06 -8.02096292e-06 4.74486251e-06 4.85591136e-06
      -6.53501866e-06 5.42890848e-06 5.09985830e-06 -1.06684229e-05
      6.17423029e-06 5.30550369e-06 -1.10131632e-05 4.37662356e-06
      2.94588881e-06 -1.29983237e-05 6.76029140e-06 5.46586762e-06
      -9.34546460e-06 5.55234510e-06 4.44710031e-06 -9.56997337e-06
      2.18541663e-06 1.24874168e-06 -9.93266985e-06 -3.56987726e-07
      -1.40395673e-06 -1.14420336e-05 2.45053997e-07 -1.04669346e-06
      -1.08275663e-05 -1.65081440e-06 -2.63169295e-06 -1.14119321e-05
      6.89527383e-07 4.24621220e-07 -4.94331198e-06 -5.63387175e-07
      -5.58611191e-07 -4.86823774e-06 -1.07207825e-06 -1.24233895e-06
      -4.31319586e-06 -2.25719168e-06 -2.59408262e-06 -5.03277715e-06
      -2.10506096e-06 -2.20644120e-06 -4.50787320e-06 -2.28077465e-06
      -2.06020763e-06 -4.08031201e-06 -5.64198047e-07 4.49844833e-07
      -1.33507956e-06 -3.33816729e-06 -2.46169225e-06 -3.90669584e-06
      -4.20910283e-06 -3.12707607e-06 -2.77840445e-06 -9.27429301e-06
      -9.30981787e-06 -7.92196624e-06 -1.02882459e-05 -1.05708614e-05
      -8.86096041e-06 -9.33122192e-06 -9.90625085e-06 -9.36265224e-06
      -6.86049862e-06 -7.18096635e-06 -6.80635367e-06 -1.38313158e-06
      -1.79072470e-06 -2.35057587e-06 -2.77602612e-06 -3.54210238e-06
      -4.10362100e-06 2.39451019e-08 -8.02418526e-07 -1.43443287e-06
      -3.97665826e-06 -4.86236877e-06 -5.66293966e-06 -4.10948041e-06
      -5.09423535e-06 -5.59877572e-06 -3.73200987e-06 -4.20092420e-06
      -4.67682366e-06 -2.26445763e-06 -2.42608439e-06 -2.79617961e-06
      7.48153207e-06 9.38991889e-06 8.31470061e-06 7.03729302e-06
      8.96046458e-06 7.91026923e-06 6.13144402e-06 8.28023258e-06
      7.86175679e-06 5.07685036e-06 7.42380962e-06 7.29733529e-06
      2.38671078e-06 4.74269655e-06 4.84015527e-06 -8.20000594e-07
      7.50763149e-07 6.86641329e-07 -6.41904592e-07 8.56760096e-07
      4.25827722e-07 2.75321463e-06 4.22026915e-06 3.78906839e-06
      -1.40304803e-06 -6.59996786e-08 -1.26799875e-07 -6.24509221e-06
      -4.68931876e-06 -4.54748897e-06 -6.45357613e-06 -5.16366435e-06
      -5.14032536e-06 -6.63857600e-06 -5.31510614e-06 -5.64727543e-06
      -2.87304056e-06 -1.26027385e-06 -3.94793688e-06 -1.35534822e-06
      -1.10852525e-07 -3.55397333e-06 -1.22298695e-06 2.03321363e-07
      -4.09467293e-06 1.00337537e-07 8.19806985e-07 -5.37677170e-06
      1.89664968e-06 1.77645938e-06 -6.64689014e-06 7.54375242e-06
      6.80891753e-06 -1.35016999e-05 9.26023040e-06 7.41731992e-06
      -1.48020090e-05 9.82551410e-06 7.60857165e-06 -1.52077437e-05
      1.18675571e-05 9.92143487e-06 -1.25089146e-05 1.31814631e-05
      1.12816788e-05 -1.14928780e-05 2.07076573e-05 1.82371477e-05
      -5.60840726e-06 2.24771120e-05 1.99235328e-05 -3.49853462e-06
      2.00324175e-05 1.75480091e-05 -4.68295912e-06 1.45562481e-05
      1.20173891e-05 -8.73967838e-06 1.24735088e-05 9.65086474e-06
      -1.12202752e-05 1.23884038e-05 9.43955729e-06 -1.60107102e-05
      1.11119916e-05 7.45437546e-06 -2.22694343e-05 1.79130730e-05
      1.45266922e-05 -1.81807009e-05 1.73652552e-05 1.46659322e-05
      -1.83468837e-05 1.40352577e-05 1.12883754e-05 -2.06944733e-05
      9.07741196e-06 7.16542218e-06 -2.09214977e-05 6.05805735e-06
      5.43680653e-06 -1.55013568e-05 6.87023021e-06 5.72986164e-06
      -1.55335019e-05 4.72800048e-06 3.20525214e-06 -1.77254205e-05
      4.01827447e-06 2.39626820e-06 -1.52902358e-05 5.88533385e-06
      4.30974387e-06 -1.24317930e-05 6.43878911e-06 4.84755947e-06
      -1.08417489e-05 4.28650310e-06 2.33461083e-06 -1.28478114e-05
      7.03183969e-06 5.52584788e-06 -7.47297190e-06 5.11507278e-06
      4.39385076e-06 -6.00305520e-06 4.50939388e-06 3.90886498e-06
      -6.11884661e-06 -2.75953695e-08 -9.74899763e-07 -1.11125491e-05
      5.09972097e-07 1.10048212e-07 -6.74783178e-06 -1.42591352e-06
      -1.75734522e-06 -6.53266852e-06 -4.61828631e-06 -4.92062054e-06
      -8.35530500e-06 -6.16207990e-06 -6.78486003e-06 -1.00145162e-05
      -7.32943818e-06 -7.76339493e-06 -1.06948901e-05 -1.08098793e-05
      -1.10057681e-05 -1.35310747e-05 -9.07605681e-06 -8.89456442e-06
      -1.14135655e-05 -7.73080319e-06 -6.90861589e-06 -9.16171120e-06
      -6.37980656e-06 -5.29537010e-06 -5.95215670e-06 -8.22191396e-06
      -7.33083607e-06 -6.29150145e-06 -1.48051856e-06 -8.42622683e-07
      2.87477604e-07 -9.45076044e-06 -9.48528941e-06 -8.44525493e-06
      -1.24139933e-06 -1.11215513e-06 1.83561031e-06 9.25097027e-07
      1.04131936e-06 2.52041173e-06 -3.30408329e-06 -3.64428456e-06
      -4.05876244e-06 8.53148947e-07 5.38745724e-07 3.32729627e-07
      -1.01440969e-06 -1.49915979e-06 -1.85031456e-06 -6.46472586e-07
      -9.43392251e-07 -1.47160893e-06 -1.26187331e-06 -1.53511928e-06
      -1.44715625e-06 -2.29487654e-07 -5.02490309e-07 -8.24392544e-07
      5.44142495e-06 7.34838159e-06 5.78195522e-06 6.90916431e-06
      8.83689881e-06 7.63388107e-06 5.81876702e-06 7.74147520e-06
      6.99437487e-06 9.16599163e-07 3.22579353e-06 2.57865668e-06
      2.37850554e-06 4.01699390e-06 2.90174671e-06 4.20516380e-06
      5.75502645e-06 4.98794043e-06 -1.76942319e-06 8.46323047e-08
      1.00410533e-08 -6.62680506e-08 1.51614040e-06 2.14519241e-06
      -8.56053362e-09 1.57470390e-06 1.95462599e-06 -5.48242269e-06
      -4.16540024e-06 -3.73579360e-06 -4.77210233e-06 -3.38124482e-06
      -3.08796598e-06 -6.55632584e-06 -4.72082547e-06 -4.79693335e-06
      -4.46818331e-06 -2.95272480e-06 -5.03057572e-06 -1.48044126e-06
      -6.99259090e-07 -4.06379104e-06 -2.38248731e-06 -1.50791504e-06
      -5.94691892e-06 9.47988667e-07 1.28652528e-06 -5.17121225e-06
      2.78887660e-06 2.50376343e-06 -8.34400635e-06 5.62095602e-06
      3.38859650e-06 -1.65064266e-05 9.98298128e-06 7.71699160e-06
      -1.47332930e-05 1.15267148e-05 9.11973166e-06 -1.35407363e-05
      1.31021898e-05 1.08283321e-05 -1.19841679e-05 1.54264253e-05
      1.34668562e-05 -9.24558390e-06 2.62609792e-05 2.32957573e-05
      -5.01446152e-07 2.35804255e-05 2.06645273e-05 -2.86416707e-06
      1.64110952e-05 1.39728691e-05 -8.43177622e-06 1.34423144e-05
      1.07753240e-05 -9.32262265e-06 1.29617301e-05 1.01758123e-05
      -1.28174242e-05 1.71769916e-05 1.52056637e-05 -9.69698522e-06
      2.16371973e-05 1.87135574e-05 -1.31054830e-05 2.20166185e-05
      1.93092274e-05 -1.44168844e-05 1.87411224e-05 1.59915653e-05
      -1.74664201e-05 1.59471110e-05 1.28090314e-05 -2.10599756e-05
      1.33547037e-05 1.05561639e-05 -2.13324220e-05 9.95891332e-06
      9.09544269e-06 -1.26969517e-05 8.18685749e-06 7.32326362e-06
      -1.31175557e-05 8.03619332e-06 7.27618271e-06 -1.17218933e-05
      8.02651539e-06 7.27637780e-06 -6.35340621e-06 6.13675547e-06
      5.54331928e-06 -7.68666905e-06 7.12342535e-06 5.86302440e-06
      -7.71202122e-06 4.11305700e-06 2.63860193e-06 -1.23934478e-05
      6.25542361e-06 4.71093472e-06 -1.00771495e-05 7.55406927e-06
      6.36641062e-06 -5.49635797e-06 6.63483297e-06 5.73122952e-06
      -5.12270708e-06 4.39795895e-06 3.74448109e-06 -7.11527400e-06
      -3.38659856e-06 -4.33551486e-06 -1.32926280e-05 8.98853330e-07
      4.31959648e-07 -4.47215643e-06 -1.02998547e-06 -1.11119323e-06
      -4.46471995e-06 -4.43712770e-06 -4.51085953e-06 -7.21680181e-06
      -6.80787480e-06 -6.80669154e-06 -9.61539445e-06 -7.32545959e-06
      -7.03416936e-06 -9.46208183e-06 -6.68003213e-06 -5.89811998e-06
      -7.26113603e-06 -4.27072109e-06 -3.52502934e-06 -5.20741787e-06
      5.26625001e-07 1.92893526e-06 7.83713176e-07 6.82669906e-07
      2.29671514e-06 3.84330633e-06 2.86010845e-06 3.74165279e-06
      5.61006618e-06 -8.86164980e-06 -8.79786967e-06 -7.28998930e-06
      -3.19487322e-06 -3.22754181e-06 -1.36588767e-07 1.12746807e-06
      1.52272503e-06 2.02700107e-06 8.00331978e-09 -2.47275750e-07
      -7.28131454e-07 -2.95580151e-07 -2.56245926e-07 -9.88115289e-07
      -1.01441913e-06 -1.27996123e-06 -1.82682982e-06 -1.82948770e-06
      -2.13973044e-06 -2.30537330e-06 -3.83774051e-07 -5.64084075e-07
      -4.50136781e-08 6.87771475e-08 1.75272930e-07 3.53664795e-08
      5.09257188e-06 6.42547047e-06 5.09539996e-06 3.57585259e-06
      5.27971270e-06 3.82486905e-06 1.43702971e-06 3.19813716e-06
      1.81388600e-06 5.80926326e-07 2.03906575e-06 6.39511995e-07
      3.89865818e-06 4.57336364e-06 2.93055450e-06 5.29977888e-06
      5.54611825e-06 4.04830325e-06 5.51647418e-06 6.35093738e-06
      5.24033294e-06 6.03535409e-06 7.31533873e-06 7.18515685e-06
      -6.47007209e-06 -5.11404460e-06 -4.54747942e-06 -9.00405212e-06
      -7.44104364e-06 -7.12541942e-06 -5.52700021e-06 -4.04170351e-06
      -4.27784062e-06 -6.22519519e-06 -5.23077279e-06 -5.20557933e-06
      -2.81088228e-06 -2.61797823e-06 -5.37491451e-06 -1.96270307e-07
      -5.44907053e-08 -5.26919348e-06 -6.60164744e-07 -6.05832156e-07
      -6.78210699e-06 -6.97952999e-07 -5.19368712e-07 -6.97487985e-06
      -3.84214900e-06 -4.39790756e-06 -1.59991050e-05 2.78114248e-06
      8.32558669e-07 -1.88847134e-05 7.63920980e-06 5.36802918e-06
      -1.69076920e-05 1.09342482e-05 8.81010510e-06 -1.32543419e-05
      1.15964103e-05 9.36532160e-06 -1.19491942e-05 1.46733264e-05
      1.27884823e-05 -7.97073517e-06 2.52895297e-05 2.26999018e-05
      1.13152467e-07 2.34651216e-05 2.06056102e-05 -3.10542077e-06
      2.08391521e-05 1.80083844e-05 -5.10195105e-06 1.63901768e-05
      1.33527783e-05 -7.26890721e-06 1.20592886e-05 8.56776478e-06
      -1.59770661e-05 1.39458971e-05 1.15034227e-05 -1.35109749e-05
      1.89590173e-05 1.61982498e-05 -1.38414962e-05 1.78412429e-05
      1.50969399e-05 -1.43497537e-05 1.51962295e-05 1.27410012e-05
      -1.65264992e-05 1.55816542e-05 1.25394336e-05 -1.69575742e-05
      1.22617457e-05 9.60334819e-06 -1.89295661e-05 1.30703975e-05
      1.16169567e-05 -1.15819821e-05 1.08004488e-05 9.87646217e-06
      -9.30701844e-06 9.11588540e-06 8.24361359e-06 -8.06533353e-06
      8.09024368e-06 7.52757342e-06 -4.43164436e-06 8.19981597e-06
      7.57149201e-06 -3.01930572e-06 6.44382999e-06 5.67172810e-06
      -5.12292354e-06 1.12096620e-06 2.17030006e-07 -1.07086162e-05
      5.96004065e-06 5.31726710e-06 -6.50444554e-06 7.57113730e-06
      8.18584613e-06 -2.24251903e-06 8.00521684e-06 8.98443523e-06
      -8.86074247e-07 6.66032702e-06 7.61314459e-06 -1.93845767e-06
      2.94522761e-06 3.73417311e-06 -5.71442752e-06 4.96112534e-06
      6.12474560e-06 9.56730673e-07 2.86677914e-06 4.33669084e-06
      1.29785701e-06 2.32796606e-06 3.86542843e-06 1.40519080e-06
      2.22035396e-06 3.29340355e-06 7.41966801e-07 -9.54824827e-07
      -4.82676285e-07 -2.95343420e-06 -4.27890745e-06 -3.72003387e-06
      -5.08113499e-06 -2.49164418e-06 -1.59625813e-06 -2.76316177e-06
      1.06664118e-07 1.41051692e-06 1.09446307e-06 3.08968924e-06
      5.15056081e-06 7.16896875e-06 4.95331449e-07 2.26683323e-06
      4.47539560e-06 -7.72112344e-06 -7.12226165e-06 -5.26803251e-06
      -3.48560457e-06 -3.23486029e-06 -8.10060726e-07 -2.85770682e-07
      -2.38588001e-07 -7.83848577e-08 -5.64450147e-07 -6.48965681e-07
      -5.43527676e-07 -9.52314707e-08 -2.70611196e-07 -3.02325631e-08
      -3.14941474e-07 -4.21189128e-07 -1.87787435e-07 -2.67335395e-06
      -2.79508231e-06 -2.52727364e-06 -7.72621206e-07 -2.99633427e-07
      8.06900413e-09 1.28164538e-06 1.53206486e-06 8.26259907e-07
      1.15924126e-06 2.31060949e-06 4.36113822e-07 -6.45742375e-07
      2.84550765e-07 -1.68393376e-06 -1.29651511e-07 -1.14451424e-07
      -2.14233592e-06 2.88592304e-07 -2.03368330e-07 -2.90066419e-06
      3.80066649e-06 2.68111467e-06 4.46436445e-07 3.34109757e-07
      -1.05797319e-07 -1.99442547e-06 2.40676991e-06 2.90082403e-06
      2.11481210e-06 3.75339096e-06 4.38590905e-06 4.43180079e-06
      3.33615185e-06 3.95464167e-06 4.55705049e-06 3.31684600e-06
      4.12949203e-06 5.05246680e-06 4.21236791e-06 5.34671699e-06
      7.18648471e-06 -7.72604653e-06 -7.22894993e-06 -4.77725507e-06
      -5.24316738e-06 -5.13900613e-06 -5.38377162e-06 -4.22294488e-06
      -4.45190381e-06 -6.47127945e-06 -4.06694471e-06 -4.91868605e-06
      -9.41865619e-06 1.15947455e-06 9.61535761e-07 -7.10010636e-06
      3.08881499e-06 2.14049510e-06 -9.75367038e-06 4.91752962e-06
      3.20533422e-06 -1.26511268e-05 4.02113619e-06 2.48744232e-06
      -1.53068595e-05 9.03938144e-06 7.28370742e-06 -1.11340787e-05
      9.31659724e-06 7.50500431e-06 -1.06366861e-05 1.25645829e-05
      1.07962342e-05 -7.44399858e-06 1.99678598e-05 1.79636645e-05
      -1.10870019e-06 2.09544414e-05 1.87836049e-05 -8.60316391e-07
      2.03691216e-05 1.80617280e-05 -1.90914056e-06 1.45613976e-05
      1.24118706e-05 -9.03323053e-06 9.88217016e-06 7.33883871e-06
      -1.46767006e-05 1.60718064e-05 1.26138775e-05 -1.30832977e-05
      1.78578393e-05 1.49376829e-05 -1.38109772e-05 1.50701826e-05
      1.22030169e-05 -1.61161188e-05 1.35619002e-05 1.03173961e-05
      -1.87601054e-05 8.39086442e-06 4.38179450e-06 -2.50302182e-05
      1.08480726e-05 7.27830047e-06 -2.15189648e-05 1.34088414e-05
      1.06653824e-05 -1.88316608e-05 1.25383249e-05 1.08685917e-05
      -8.77073853e-06 7.92158244e-06 6.13974407e-06 -1.06837570e-05
      6.67997665e-06 5.45889543e-06 -1.00031602e-05 2.33127798e-06
      2.12621012e-06 -9.27635483e-06 5.39629355e-06 6.19836737e-06
      -4.03052809e-06 7.04979038e-06 8.42982263e-06 -1.02447063e-06
      8.81357846e-06 9.91401521e-06 -4.23737674e-07 8.32414207e-06
      9.81567064e-06 -1.24513417e-06 9.42355928e-06 1.11225827e-05
      1.73587455e-06 1.06290217e-05 1.15535759e-05 1.93483925e-06
      8.93420838e-06 9.94969378e-06 4.49826786e-07 4.43041426e-06
      6.16949592e-06 -1.05479224e-07 4.78345373e-06 6.18665490e-06
      2.95426912e-06 4.93704101e-06 6.43309613e-06 4.24335212e-06
      4.42046166e-06 6.37158473e-06 3.88744229e-06 2.41974772e-06
      4.52692166e-06 2.17093930e-06 2.54665861e-06 4.83294298e-06
      3.42875569e-06 3.31758520e-06 5.68110863e-06 5.31076739e-06
      8.00419514e-07 3.17272634e-06 3.37166966e-06 3.91804133e-06
      6.62013326e-06 9.53679682e-06 -7.83486826e-07 1.12952421e-06
      3.98216707e-06 -4.70369650e-06 -3.58204079e-06 -8.81282915e-07
      -2.09361497e-06 -1.31168849e-06 1.37865061e-06 -1.08250822e-06
      -1.03730508e-06 -7.76503896e-07 -2.04358730e-06 -1.98710154e-06
      -1.42517536e-06 -1.82137524e-06 -1.78578148e-06 -1.28513091e-06
      -7.47174738e-07 -9.90342414e-07 -7.37915286e-07 -3.46074603e-06
      -3.87623231e-06 -3.24681696e-06 -2.10985809e-06 -2.34421304e-06
      -1.68268593e-06 9.27496217e-07 9.39214090e-07 2.12127105e-07
      1.32841330e-06 1.64911160e-06 -8.08419770e-07 -3.95613853e-07
      -6.17435148e-07 -3.34301012e-06 -3.84375483e-08 -9.94821107e-07
      -2.97012321e-06 -2.46384093e-06 -2.97916881e-06 -1.37968311e-06
      -3.92667516e-06 -3.82929784e-06 -1.47446565e-06 -6.04163063e-07
      -2.76251910e-07 2.10847475e-06 -2.56820817e-06 -2.20010179e-06
      5.67139466e-07 -2.72435500e-06 -2.14158536e-06 7.66007062e-08
      2.32894365e-07 8.66092421e-07 3.31486945e-06 1.60916329e-06
      2.34782692e-06 4.71643671e-06 1.53031897e-06 2.16987360e-06
      4.99390217e-06 -3.01775185e-06 -2.72415673e-06 8.04195608e-08
      -3.55566112e-06 -3.72779277e-06 -3.43597685e-06 -4.17707588e-06
      -4.55401505e-06 -6.47460683e-06 -4.41449765e-06 -5.62984224e-06
      -8.73701447e-06 -2.37222321e-06 -2.59454441e-06 -8.29516193e-06
      -1.77348238e-06 -1.96866972e-06 -9.97026473e-06 7.36045104e-06
      6.83541657e-06 -9.70897690e-06 8.21911362e-06 6.91679816e-06
      -1.13756678e-05 7.96799668e-06 6.66939286e-06 -1.17041445e-05
      9.28501777e-06 8.04278443e-06 -1.06225998e-05 1.13847154e-05
      1.00793468e-05 -8.57393479e-06 1.80603347e-05 1.60728287e-05
      -3.01386785e-06 1.75571422e-05 1.55601774e-05 -4.38913912e-06
      1.76023714e-05 1.54927275e-05 -4.72436523e-06 1.92018961e-05
      1.64940993e-05 -8.66327719e-06 9.34911259e-06 6.99480597e-06
      -1.81421783e-05 1.42330700e-05 1.15168086e-05 -1.79508115e-05
      1.61548815e-05 1.35620130e-05 -1.58705679e-05 1.29826931e-05
      1.03903176e-05 -1.79817816e-05 1.49805064e-05 1.15323719e-05
      -1.86953639e-05 1.38398573e-05 1.03417597e-05 -1.95986740e-05
      1.02760887e-05 7.53886889e-06 -2.09091068e-05 1.40818292e-05
      1.12922926e-05 -1.76484373e-05 1.24222115e-05 1.10991541e-05
      -1.19825145e-05 8.64762114e-06 8.64882895e-06 -7.18008187e-06
      6.41103316e-06 6.54519135e-06 -6.97587120e-06 3.09531947e-06
      3.83180077e-06 -5.05601474e-06 7.65504137e-06 8.54559221e-06
      -5.79794417e-08 5.70508882e-06 6.83660801e-06 -1.17009984e-06
      6.04638308e-06 7.09710912e-06 -1.04757260e-06 5.00665283e-06
      5.74934211e-06 -3.77112519e-06 5.76066213e-06 6.87415331e-06
      -8.15836529e-07 8.04616047e-06 9.05716024e-06 7.82183520e-07
      9.61056321e-06 1.06998532e-05 2.21108030e-06 7.46008573e-06
      8.30632234e-06 1.22200481e-06 1.24238409e-06 2.46550258e-06
      -5.30751151e-07 1.01114642e-06 2.63148763e-06 1.40153111e-06
      1.20188747e-06 3.60338822e-06 2.64930873e-06 2.40761847e-06
      5.01627892e-06 3.78158529e-06 3.66626477e-06 6.43302474e-06
      6.01013471e-06 -8.73909229e-08 2.56882572e-06 2.91437323e-06
      4.13990563e-07 3.37031474e-06 3.66626932e-06 -1.44373772e-07
      3.52330107e-06 5.75945387e-06 -7.40702546e-07 2.99133762e-06
      6.73322529e-06 -3.28889087e-06 -2.98399527e-07 3.40441011e-06
      -1.12907500e-07 2.22817835e-06 4.38305597e-06 -3.04244327e-06
      -2.56375256e-06 -2.07978633e-06 -1.63869265e-06 -1.39948713e-06
      -9.96285053e-07 -3.66401127e-06 -3.44378577e-06 -3.24719895e-06
      -1.31622562e-06 -1.25446661e-06 -1.02093281e-06 -3.68927408e-06
      -3.74083334e-06 -3.44928321e-06 -2.02165393e-06 -1.98039993e-06
      -1.72490593e-06 -6.26187557e-07 -7.04323043e-07 -1.03245088e-06
      3.13680994e-06 2.05549895e-06 -7.83018152e-07 1.52459347e-06
      6.46222077e-07 -2.18138121e-06 -3.58374791e-06 -4.08635015e-06
      -3.80531060e-06 -1.64692688e-06 -1.77689117e-06 9.33301521e-07
      -9.88771149e-07 -1.31675745e-06 1.50161941e-06 -1.43512761e-06
      -1.45154308e-06 1.18020603e-06 8.44566671e-07 6.36912716e-07
      1.72011300e-06 8.98812061e-07 8.92629998e-07 1.86213390e-06
      -2.77162849e-06 -2.39864949e-06 -3.37384677e-07 -2.94236929e-06
      -2.24380165e-06 -4.03906988e-08 -2.70647320e-06 -1.61112223e-06
      1.05758261e-06 -1.05130334e-06 2.35907009e-08 2.49126197e-06
      -1.01355511e-06 -4.61882991e-07 -1.04383037e-06 -3.73634543e-06
      -3.22215146e-06 -5.20634012e-06 -2.27044188e-06 -1.75963044e-06
      -4.78978336e-06 -1.96907422e-06 -1.34602874e-06 -5.39362691e-06
      -2.94003576e-06 -2.09647760e-06 -7.56134068e-06 4.48002538e-07
      2.83334572e-07 -8.89369221e-06 7.93250729e-06 7.16341629e-06
      -9.14005886e-06 7.43107785e-06 5.97601274e-06 -1.19525739e-05
      7.02710304e-06 5.37337382e-06 -1.22607125e-05 1.15889525e-05
      9.79242395e-06 -8.77519687e-06 1.83410266e-05 1.63229270e-05
      -2.74451213e-06 1.77135098e-05 1.56937349e-05 -3.50949699e-06
      1.84164219e-05 1.59229148e-05 -5.09058100e-06 2.13269286e-05
      1.89221773e-05 -6.95600329e-06 1.27995472e-05 9.82429447e-06
      -1.64905796e-05 1.48906784e-05 1.16993124e-05 -1.85634181e-05
      1.47944393e-05 1.18719263e-05 -1.89808234e-05 1.40626535e-05
      1.21121293e-05 -1.66904865e-05 1.53596793e-05 1.27038547e-05
      -1.73179960e-05 1.37988327e-05 1.14397526e-05 -1.80905790e-05
      1.18529588e-05 1.06511907e-05 -1.80739153e-05 1.23472482e-05
      1.10321171e-05 -1.78092105e-05 1.06276748e-05 9.57231441e-06
      -1.80116403e-05 5.37165261e-06 5.75732247e-06 -1.08632357e-05
      3.12401494e-06 3.54167150e-06 -9.34163108e-06 1.05769004e-06
      1.83842360e-06 -6.14319106e-06 -2.82646155e-08 6.81899166e-07
      -6.55646454e-06 -6.64793390e-07 -3.22159906e-07 -7.62953459e-06
      5.94082280e-07 1.11627935e-06 -6.21867503e-06 2.14155170e-06
      3.07610094e-06 -6.28310090e-06 3.15673674e-06 4.05401533e-06
      -3.86703641e-06 1.35429366e-06 2.13189514e-06 -5.83432393e-06
      4.81643724e-07 9.17535374e-07 -7.25588507e-06 1.43482100e-06
      1.74963805e-06 -5.46717365e-06 1.03416994e-06 1.95660073e-06
      -1.08279221e-06 -5.60902720e-07 1.35126743e-06 5.60128001e-07
      -4.98482791e-07 1.07079245e-06 9.21511685e-07 2.62443137e-07
      1.84676855e-06 2.13831322e-06 1.22344863e-06 3.22502933e-06
      3.47688547e-06 6.54103701e-07 2.89899481e-06 3.35470372e-06
      -6.95087351e-07 1.69803775e-06 1.95427060e-06 4.80079223e-07
      3.26927443e-06 4.73152068e-06 6.00039471e-07 3.64320999e-06
      6.90458955e-06 -2.88283923e-06 -3.88713886e-07 2.97564839e-06
      2.35564016e-06 4.88327578e-06 6.77093976e-06 -1.32735363e-06
      2.14256772e-07 1.02596709e-06 -1.97835516e-06 -5.42089992e-07
      2.97555403e-07 -3.74906290e-06 -3.47012951e-06 -2.77073173e-06
      -3.39128746e-06 -3.17610647e-06 -2.47934986e-06 -6.46428089e-06
      -6.14972259e-06 -5.22914752e-06 -3.96657742e-06 -3.55779753e-06
      -3.22959022e-06 -9.62915919e-07 -2.61749619e-07 -5.34739286e-07
      5.61987554e-06 5.33373395e-06 3.70780504e-06 4.79224354e-06
      4.45091382e-06 2.89003128e-06 3.59271030e-06 3.59605338e-06
      4.06926347e-06 -2.13799311e-07 1.65617976e-07 3.21696598e-06
      7.45478985e-07 1.50180813e-06 3.93701112e-06 -2.89561299e-08
      2.02212462e-07 2.12654527e-06 -1.10638121e-06 -8.50454967e-07
      -7.94906683e-08 -9.66838797e-07 -5.16445255e-07 8.80211019e-07
      3.04548462e-06 4.12318650e-06 6.75760839e-06 1.60245747e-06
      3.07483970e-06 6.00371413e-06 -1.36474625e-06 -1.04628796e-07
      2.30256092e-06 -3.95614052e-06 -3.51441759e-06 -2.07438984e-06
      -4.85370401e-06 -4.82339283e-06 -5.71504779e-06 -1.25195140e-06
      -6.00559986e-07 -3.51187418e-06 -1.27714515e-07 1.18036928e-06
      -3.27685211e-06 -1.15816340e-06 -2.37184949e-07 -4.64261529e-06
      -2.58896353e-06 -1.95434313e-06 -6.80844278e-06 1.78502899e-06
      1.96528708e-06 -7.53665427e-06 8.37625521e-06 8.61791250e-06
      -7.22578079e-06 4.25427788e-06 2.59643639e-06 -1.48967883e-05
      3.61675416e-06 1.99606984e-06 -1.53043038e-05 8.19790603e-06
      6.70808731e-06 -1.11228183e-05 1.06020989e-05 8.77412822e-06
      -1.02379508e-05 1.26480272e-05 1.08537670e-05 -8.42139616e-06
      1.54024219e-05 1.33438361e-05 -1.05548843e-05 1.31553325e-05
      1.08922422e-05 -1.47090877e-05 1.15145103e-05 9.30216902e-06
      -1.96682722e-05 1.34767406e-05 1.05145646e-05 -2.15414984e-05
      1.30312765e-05 1.00248171e-05 -1.98900761e-05 1.54999943e-05
      1.27122021e-05 -1.78503760e-05 1.38960741e-05 1.18945336e-05
      -1.74083943e-05 1.41035307e-05 1.25683091e-05 -1.64268149e-05
      1.23109803e-05 1.15075854e-05 -1.79308281e-05 1.04050341e-05
      9.54693769e-06 -1.88827107e-05 1.21982694e-05 1.08739905e-05
      -1.62427496e-05 8.44462647e-06 8.44526949e-06 -1.33605045e-05
      5.06316201e-06 5.94519088e-06 -8.12541475e-06 4.72585771e-06
      5.58564852e-06 -4.72332522e-06 4.05779338e-06 5.17859962e-06
      -2.96568601e-06 3.90649711e-06 4.48872697e-06 -4.13645739e-06
      1.45288345e-06 1.64441951e-06 -6.84437146e-06 1.81646976e-06
      1.59310400e-06 -8.91982199e-06 3.05824210e-06 2.79603978e-06
      -7.47443391e-06 4.08491496e-06 4.00221734e-06 -4.95750555e-06
      3.85870953e-06 4.09153654e-06 -4.71841076e-06 3.42791077e-06
      3.80326242e-06 -4.45234946e-06 1.17960724e-06 1.99821488e-06
      -3.44845489e-06 2.44735202e-06 3.37584720e-06 2.16049943e-06
      2.22816675e-06 3.11764825e-06 2.72510874e-06 1.94377367e-06
      2.57400325e-06 2.57765373e-06 1.99671740e-06 3.22886558e-06
      3.03923139e-06 1.20716368e-06 2.87545595e-06 2.73618980e-06
      2.01962621e-06 3.76550906e-06 3.29850513e-06 8.40378789e-08
      2.47302796e-06 2.36697451e-06 1.54878660e-06 4.24638756e-06
      6.56586735e-06 -3.42114078e-07 1.53658129e-06 2.83260647e-06
      7.21297965e-07 2.75614411e-06 3.90058267e-06 -1.42166618e-06
      5.61687159e-07 1.02951060e-06 -3.16022169e-06 -1.52588973e-06
      -4.83865620e-07 -3.25693736e-06 -1.50231165e-06 -4.46266512e-07
      -4.64200951e-07 4.88314072e-07 9.87824706e-07 4.25969375e-07
      4.66904083e-07 2.06827806e-07 -1.03583875e-06 -7.62681793e-07
      -9.99337203e-07 -1.16591934e-06 -4.34800029e-07 -6.47178751e-07
      -4.04950271e-07 8.13453127e-08 -3.94755460e-07 2.29925490e-06
      2.92757886e-06 2.74394529e-06 2.81985376e-06 3.46493630e-06
      3.75449645e-06 1.72863861e-06 2.57048987e-06 5.33899129e-06
      -2.22416858e-07 4.03338959e-07 4.08106007e-06 1.41065232e-06
      2.01793205e-06 5.19855848e-06 1.74831519e-06 2.45747424e-06
      5.21106585e-06 3.87918533e-07 1.04398987e-06 3.39194207e-06
      3.75205786e-06 5.22053233e-06 8.05111995e-06 -2.23269944e-06
      -9.54348593e-07 2.06083678e-06 -1.62814820e-06 -1.26161888e-06
      1.38564394e-06 -6.37794756e-06 -6.56565726e-06 -4.65511403e-06
      -1.04274977e-05 -1.02705508e-05 -1.09418579e-05 -7.01296494e-06
      -7.21640663e-06 -9.40151949e-06 -3.98705197e-06 -3.96385303e-06
      -7.39843063e-06 3.03181628e-06 3.82024837e-06 -1.75370167e-06
      6.30003888e-06 6.75656884e-06 -5.60612489e-06 5.92829065e-06
      5.55928455e-06 -1.08841250e-05 5.79433890e-06 4.61317131e-06
      -1.24338367e-05 5.37575261e-06 4.04905086e-06 -1.34133252e-05
      4.88670548e-06 3.59421210e-06 -1.36361568e-05 5.10691962e-06
      3.63283448e-06 -1.38167279e-05 5.64329775e-06 4.07399375e-06
      -1.36003255e-05 9.23234802e-06 7.59836939e-06 -1.14903869e-05
      1.25373745e-05 1.04083356e-05 -1.33761878e-05 1.08434506e-05
      8.85964437e-06 -1.58785024e-05 1.43868310e-05 1.20008772e-05
      -1.90266619e-05 1.61314820e-05 1.27505136e-05 -2.03563759e-05
      1.58439561e-05 1.28368310e-05 -1.88911472e-05 1.44043997e-05
      1.16073961e-05 -1.96381261e-05 1.47296605e-05 1.29069776e-05
      -1.60394029e-05 1.46241237e-05 1.33290823e-05 -1.60005238e-05
      1.50663072e-05 1.38329715e-05 -1.58945222e-05 1.32589266e-05
      1.23540194e-05 -1.58003204e-05 1.22116726e-05 1.10822230e-05
      -1.63677178e-05 1.17805575e-05 1.13136730e-05 -1.39030171e-05
      9.71189638e-06 1.06485813e-05 -3.36212452e-06 9.32361672e-06
      1.07437390e-05 -1.16670708e-06 7.12667133e-06 8.16743250e-06
      1.34897675e-06 5.29648878e-06 5.99763825e-06 -1.56729811e-06
      3.72171803e-06 3.89269462e-06 -3.59026717e-06 4.09040240e-06
      3.74405045e-06 -5.62284322e-06 1.09531720e-06 8.06782907e-07
      -8.09355697e-06 2.81500934e-06 2.52559312e-06 -5.54380495e-06
      5.63392905e-06 5.70399607e-06 -2.71084787e-06 3.51216136e-06
      3.25956034e-06 -5.27692191e-06 3.89144680e-06 3.43153124e-06
      -3.43928946e-06 3.20642607e-06 3.83270390e-06 1.60740444e-06
      2.70713826e-06 3.48934464e-06 2.46331024e-06 2.63596689e-06
      3.73534613e-06 3.10202995e-06 4.04212915e-06 5.32723561e-06
      4.72908232e-06 3.91053300e-06 5.58057764e-06 4.82581891e-06
      4.30228556e-06 6.37660560e-06 5.61734305e-06 2.59561807e-06
      4.91498486e-06 3.81281302e-06 5.15010470e-06 7.34816149e-06
      8.57375744e-06 4.44337411e-06 6.57754845e-06 7.07010668e-06
      4.28185058e-06 6.67976110e-06 7.07546451e-06 1.72836337e-06
      3.94665039e-06 3.89986781e-06 1.41803355e-06 3.60612034e-06
      3.55141310e-06 1.15981345e-06 3.31258934e-06 3.23208565e-06
      2.05407878e-06 3.93540222e-06 3.58555690e-06 2.05301558e-06
      3.71358351e-06 3.34107949e-06 -4.28247222e-06 -3.58094940e-06
      -4.00090630e-06 -3.91246112e-06 -3.35400409e-06 -3.46445017e-06
      -2.48029755e-06 -1.48074764e-06 -1.15073669e-06 3.79661492e-06
      5.04806439e-06 5.26469739e-06 2.25083636e-06 3.81681775e-06
      4.37884137e-06 -2.93132803e-06 -1.26825068e-06 2.68037161e-06
      -6.71292082e-06 -5.03134970e-06 -1.83093249e-07 2.86622253e-07
      1.47479568e-06 5.60087710e-06 -1.70211410e-06 -1.06931213e-06
      3.25418455e-06 2.64826781e-06 4.49783875e-06 8.31243051e-06
      2.54588554e-06 4.54299698e-06 7.90622562e-06 -2.40057443e-06
      -8.91568277e-07 1.80668087e-06 -2.11983297e-06 -1.51464576e-06
      1.15535306e-06 5.37979702e-07 1.44696730e-06 3.40060183e-06
      -4.75663819e-06 -4.48036280e-06 -4.64751247e-06 -3.99393002e-06
      -3.59771911e-06 -4.96687471e-06 -2.03971740e-06 -1.78332016e-06
      -4.26603174e-06 -1.12586599e-06 -8.55635108e-07 -4.71154226e-06
      -2.62284607e-06 -2.38996063e-06 -8.48170748e-06 7.69681321e-07
      6.10625932e-07 -1.19014630e-05 5.03379033e-06 4.08212691e-06
      -1.12944081e-05 4.81161260e-06 3.56091596e-06 -1.25266006e-05
      3.99538294e-06 2.96212420e-06 -1.25878232e-05 3.65974552e-06
      2.52807399e-06 -1.32087280e-05 3.47830814e-06 2.33570017e-06
      -1.36551280e-05 4.03093145e-06 2.76450669e-06 -1.25091537e-05
      9.43000668e-06 8.87123497e-06 -1.04665496e-05 1.04179535e-05
      9.15163673e-06 -1.23546088e-05 1.31194884e-05 1.07773385e-05
      -1.79456038e-05 1.60415802e-05 1.34274087e-05 -1.66411901e-05
      1.56972983e-05 1.28565162e-05 -1.67982053e-05 1.40768434e-05
      1.23145755e-05 -1.63126588e-05 1.26559971e-05 1.11863037e-05
      -1.60615309e-05 1.48463841e-05 1.46011034e-05 -1.23964965e-05
      1.48860681e-05 1.44466821e-05 -1.19223105e-05 1.34375823e-05
      1.36021426e-05 -1.13230444e-05 1.17847840e-05 1.23612890e-05
      -1.09229895e-05 1.05489125e-05 1.15612638e-05 -1.07613305e-05
      5.80220149e-06 8.37764037e-06 -6.80430685e-06 9.76882529e-06
      1.30576709e-05 4.08408596e-06 5.56100031e-06 8.78904757e-06
      6.85784971e-06 5.52418044e-07 1.38542885e-06 -4.75310890e-06
      1.99020928e-06 2.15085811e-06 -5.67256848e-06 2.78575567e-06
      2.21463347e-06 -6.58374756e-06 1.56507008e-06 7.09373865e-07
      -9.17991747e-06 -1.77924463e-07 -1.23545931e-06 -9.93053891e-06
      1.05322124e-06 -4.63312944e-07 -8.54498921e-06 1.50591131e-06
      2.77203952e-07 -8.34120237e-06 1.69015834e-06 8.63616151e-07
      -6.73321392e-06 8.06595779e-07 9.42336783e-07 -2.76859987e-06
      -2.75372045e-08 2.00019734e-08 -7.41382166e-07 3.05177127e-06
      3.37684173e-06 3.13611463e-06 3.92499442e-06 5.39882694e-06
      5.02641342e-06 4.66279516e-06 6.52805147e-06 6.25620305e-06
      3.14069985e-06 4.96488292e-06 4.75325442e-06 2.59801027e-06
      4.87391935e-06 4.54486872e-06 3.79738549e-06 5.96233667e-06
      7.10462609e-06 3.78032018e-06 5.62008290e-06 7.45884699e-06
      2.39624751e-06 4.53313214e-06 5.81035601e-06 3.24362844e-07
      2.34932645e-06 2.69906786e-06 -1.40310578e-06 1.04672415e-06
      1.94816812e-06 -2.37671975e-06 1.08021204e-07 1.24461269e-06
      -4.63140213e-06 -2.17479260e-06 -1.25006420e-06 -3.42170279e-06
      -1.18427863e-06 -3.83573763e-07 -3.87879527e-06 -1.59105491e-06
      -7.67854885e-07 -1.46190791e-06 1.26528317e-08 9.26980803e-08
      -1.05716913e-06 5.38439515e-08 4.60911934e-07 5.31415162e-06
      6.81991150e-06 7.75047192e-06 -9.18276965e-06 -7.88374837e-06
      -6.66077040e-06 -4.35592437e-06 -3.11904091e-06 6.98908138e-07
      -1.45812364e-05 -1.13251544e-05 -5.11655628e-07 -1.11284053e-05
      -7.60457078e-06 8.54774498e-06 -8.30848057e-06 -4.63432025e-06
      1.21597450e-05 -8.75309615e-06 -4.45567275e-06 1.19979522e-05
      -6.02023647e-06 -2.46015134e-06 1.32091827e-05 -6.87408192e-06
      -4.42059036e-06 1.00860434e-05 -9.66781954e-06 -7.53506674e-06
      6.67687164e-06 -1.02098020e-05 -7.59562681e-06 6.40148028e-06
      -4.53130724e-06 -1.21325525e-06 7.88677971e-06 -5.80697952e-06
      -2.42218243e-06 5.88280727e-06 -7.31558112e-06 -4.49556410e-06
      4.90391267e-06 -7.31577438e-06 -4.85568398e-06 3.33790490e-06
      -9.37617824e-06 -6.74686635e-06 -9.89130982e-08 -9.04225453e-06
      -6.31478360e-06 -2.52557152e-06 -8.97274731e-06 -6.57506462e-06
      -4.44835268e-06 -7.55160556e-07 -4.10829415e-07 -5.54840381e-06
      -4.49728850e-06 -4.19785192e-06 -9.40620794e-06 -6.05404512e-06
      -5.87813565e-06 -1.07224223e-05 -5.76464799e-06 -5.24518418e-06
      -9.99782787e-06 1.18667469e-06 1.90541891e-06 -4.76900277e-06
      1.57443492e-06 2.49016284e-06 -7.27892530e-06 4.78617267e-06
      4.69758106e-06 -7.72873682e-06 1.01627211e-05 8.83262692e-06
      -1.08018130e-05 8.06379740e-06 7.32519493e-06 -1.36554363e-05
      8.70917847e-06 7.74232649e-06 -1.43038678e-05 9.55372889e-06
      8.08891764e-06 -1.35786759e-05 7.88040688e-06 6.53528241e-06
      -1.40420025e-05 1.00704374e-05 9.04686749e-06 -1.40762922e-05
      1.10283372e-05 1.10779638e-05 -9.96350900e-06 9.80761433e-06
      1.01127534e-05 -1.00496745e-05 9.53119797e-06 1.03623479e-05
      -8.84912606e-06 8.00081034e-06 8.64584217e-06 -9.38590529e-06
      9.99342865e-06 1.13863862e-05 -4.28264957e-06 2.47244952e-06
      4.88504793e-06 -2.48465699e-06 -8.34173591e-07 1.71778652e-06
      1.12373311e-06 -3.42260410e-06 -1.17539889e-06 2.06302298e-06
      1.76070978e-06 4.02213800e-06 4.61673517e-06 5.77732044e-06
      5.68825453e-06 -1.36849863e-07 6.63359469e-06 5.86910301e-06
      -2.18180571e-06 5.67847610e-06 5.64912034e-06 -1.50814367e-06
      6.67098448e-06 6.22107473e-06 3.73572817e-08 7.20730804e-06
      7.03192745e-06 2.62269225e-07 6.19010007e-06 6.33212176e-06
      1.26708869e-07 4.90254115e-06 5.27923839e-06 4.46502980e-07
      2.55450914e-07 1.32250625e-06 1.33855269e-06 4.55953455e-07
      1.59850958e-06 1.84812006e-06 1.40203258e-06 3.23602944e-06
      3.46258525e-06 1.24757344e-06 3.20568074e-06 3.81290670e-06
      -2.71776685e-07 1.58449598e-06 2.38530197e-06 2.64864389e-06
      4.52539916e-06 3.95579855e-06 3.43720103e-06 5.65374467e-06
      5.89031788e-06 4.08006827e-06 6.31192552e-06 8.42481495e-06
      2.30179171e-06 4.08288906e-06 5.59664295e-06 -5.41692557e-08
      1.93124902e-06 2.57448141e-06 1.03280065e-07 2.40645272e-06
      3.20111326e-06 -2.90174626e-07 2.05308220e-06 3.07985988e-06
      -7.73989257e-07 1.83509917e-06 2.60759020e-06 -8.18621800e-07
      1.69208340e-06 2.36539995e-06 6.45262162e-07 3.16885280e-06
      3.56182636e-06 -9.65230811e-07 1.73143303e-06 1.78912717e-06
      5.94189544e-07 2.12077771e-06 2.86014733e-06 6.08307573e-06
      8.18132503e-06 8.87373244e-06 -5.47242007e-06 -4.14156648e-06
      -2.93200060e-06 -5.36958441e-06 -3.59927640e-06 1.75875797e-07
      -1.11124900e-05 -7.38023982e-06 8.14042414e-06 -1.22329584e-05
      -7.91891489e-06 8.81025153e-06 -1.05866075e-05 -6.86970679e-06
      9.98386804e-06 -9.68614040e-06 -5.49984497e-06 1.07879396e-05
      -5.92370043e-06 -2.91481865e-06 1.16945266e-05 -5.75686317e-06
      -3.79061385e-06 1.08208742e-05 -1.01575879e-05 -8.35738410e-06
      6.09463541e-06 -1.27940675e-05 -1.06461684e-05 2.89050718e-06
      -1.15731482e-05 -9.76658612e-06 1.46701473e-06 -6.95136123e-06
      -5.11460121e-06 4.06036133e-06 -2.24692963e-06 5.96964526e-07
      6.92504454e-06 -4.66236725e-06 -1.83305497e-06 5.47142281e-06
      -4.34789081e-06 -1.40938698e-06 4.35772563e-06 -6.73855129e-06
      -3.04763671e-06 3.79796205e-07 -1.15126231e-05 -8.02084833e-06
      -4.88915430e-06 -2.27159239e-06 2.13225874e-07 -3.93419441e-06
      -4.18504487e-06 -2.09912264e-06 -7.08971766e-06 -4.07766538e-06
      -2.21427422e-06 -6.93404991e-06 -2.38557254e-06 -2.39321650e-07
      -4.86596173e-06 4.02046726e-06 5.79213565e-06 -2.41572070e-06
      5.18327852e-07 2.74733293e-06 -6.81258643e-06 6.52077188e-06
      7.86014607e-06 -7.73435568e-06 5.33490402e-06 6.09955850e-06
      -1.33295789e-05 8.55803046e-06 9.07485537e-06 -1.13915685e-05
      9.94183392e-06 1.06186671e-05 -1.16688325e-05 1.09619223e-05
      1.06867192e-05 -1.06022289e-05 9.88391821e-06 8.56028146e-06
      -1.44225696e-05 1.02707854e-05 8.93206561e-06 -1.42730069e-05
      1.13909828e-05 1.08289569e-05 -1.02756658e-05 1.00773414e-05
      1.04105038e-05 -9.55483938e-06 9.99670374e-06 1.05940990e-05
      -8.98988947e-06 9.13698841e-06 9.29758971e-06 -8.80263997e-06
      1.18883427e-05 1.15191760e-05 -9.15616602e-06 4.02194382e-06
      5.97923645e-06 -8.95657013e-06 6.14428882e-06 7.82264215e-06
      1.84393443e-07 9.25075710e-07 3.47146693e-06 3.49861421e-06
      4.12562343e-07 2.54870247e-06 3.09819484e-06 1.04729281e-06
      1.78929236e-06 -3.65588153e-06 1.03844866e-06 1.33706021e-06
      -6.12752683e-06 -2.10913572e-06 -1.88420972e-06 -7.66399990e-06
      5.92087908e-08 3.65369118e-07 -4.98279633e-06 1.22775680e-06
      1.17749335e-06 -3.94199833e-06 3.31181718e-06 3.89735760e-06
      -1.19437152e-06 4.50316384e-06 5.57859767e-06 1.02973377e-06
      1.44922581e-07 1.78004518e-06 2.08153756e-06 -3.63522133e-07
      1.48065612e-06 2.58785735e-06 1.00229602e-06 3.05689400e-06
      4.10354778e-06 1.85304361e-06 4.02944124e-06 5.09471283e-06
      4.26485849e-06 6.40985672e-06 6.91170044e-06 5.77939409e-06
      8.14508803e-06 7.13412965e-06 4.77382719e-06 8.13359475e-06
      7.26607004e-06 5.59772889e-06 8.92193566e-06 1.11737354e-05
      3.35874029e-06 6.61039257e-06 8.39387485e-06 -5.89425042e-07
      1.82756094e-06 3.02858462e-06 -2.03657169e-06 1.81724175e-07
      1.39716462e-06 -4.55011741e-06 -2.12442387e-06 -1.04171113e-06
      -6.76990840e-06 -4.04225011e-06 -2.50963672e-06 -7.34020023e-06
      -4.67840619e-06 -3.07523737e-06 -4.34204912e-06 -1.49383470e-06
      -7.70054044e-07 5.04853733e-06 7.67019628e-06 8.34964794e-06
      8.14678913e-07 2.15438672e-06 2.69695693e-06 5.06829247e-06
      6.57419378e-06 7.38341441e-06 -5.77921946e-06 -4.71140402e-06
      -3.40874954e-06 -8.51197274e-06 -7.31524779e-06 -3.74687897e-06
      -1.34839420e-05 -1.05182735e-05 5.24995676e-06 -1.36564149e-05
      -9.84440067e-06 7.08585867e-06 -1.33635294e-05 -8.99514271e-06
      8.05837590e-06 -7.25706923e-06 -4.16389184e-06 6.56942029e-06
      -5.49297374e-06 -4.18117042e-06 5.93526420e-06 -8.74913258e-06
      -6.95421386e-06 6.98427766e-06 -9.24324013e-06 -7.40892256e-06
      6.36335108e-06 -1.15145313e-05 -9.44237945e-06 3.08164408e-06
      -1.08006770e-05 -9.30919941e-06 1.27801502e-06 -1.39932508e-05
      -1.17324253e-05 -1.82332928e-06 -1.02545873e-05 -7.37257415e-06
      5.16762441e-07 -4.14728402e-06 -8.70221129e-07 3.53874316e-06
      -1.00647640e-06 1.06267044e-06 -2.01657031e-06 -2.06749564e-06
      2.33862067e-07 -2.59520675e-06 -2.95202813e-06 -3.22831198e-07
      -3.13206965e-06 -2.85112037e-06 -9.88299348e-07 -4.94865662e-06
      -3.03847423e-06 -1.19319623e-06 -5.27214888e-06 -3.13369310e-06
      -1.22691961e-06 -5.43575243e-06 -8.77598154e-07 9.30480780e-07
      -3.78532263e-06 4.04262255e-06 5.92183278e-06 -2.99068620e-06
      1.81946154e-06 3.40251404e-06 -6.05148762e-06 8.50738343e-06
      9.66232437e-06 -6.69174869e-06 8.97191239e-06 9.38320954e-06
      -9.21541505e-06 1.04236506e-05 1.04874471e-05 -9.85383940e-06
      1.12523685e-05 1.10229830e-05 -1.00246334e-05 1.29804803e-05
      1.24550770e-05 -9.44457133e-06 1.32182849e-05 1.25085890e-05
      -1.22772635e-05 1.33451322e-05 1.27110752e-05 -1.14042787e-05
      1.24595235e-05 1.19050519e-05 -1.12447678e-05 1.09440207e-05
      1.10573401e-05 -8.77256480e-06 1.11627114e-05 1.09415132e-05
      -8.80846346e-06 1.08354216e-05 1.11541603e-05 -7.84963504e-06
      9.46581622e-06 1.01523519e-05 -7.82878760e-06 5.55763336e-06
      6.87451984e-06 -7.25450946e-06 7.04229660e-06 9.13849544e-06
      3.28568717e-07 3.81425912e-06 6.30001705e-06 5.03830734e-06
      1.20892150e-06 3.49199831e-06 4.31918488e-06 -1.70597343e-06
      -4.97217854e-07 -5.41860709e-06 -6.24839174e-07 5.10773361e-07
      -7.00991177e-06 -2.23155735e-06 -1.60498951e-06 -7.93564868e-06
      2.54426163e-06 3.03068191e-06 -2.96109010e-06 1.56662668e-06
      2.39772407e-06 -3.10425344e-06 -4.35925358e-08 9.04904141e-07
      -4.07911921e-06 -1.30207764e-06 1.15907895e-07 -4.40063559e-06
      -2.50420180e-06 -4.77982383e-07 -1.57319755e-06 -2.85989086e-06
      -7.87000204e-07 3.28790804e-07 -7.90582305e-07 1.13434658e-06
      1.83350346e-06 -3.22785013e-07 1.89185346e-06 2.24223618e-06
      2.57567535e-06 5.11255439e-06 4.91347146e-06 2.99581620e-06
      5.49075139e-06 3.94240260e-06 5.87033753e-07 3.29823956e-06
      2.73284559e-06 -9.94322818e-07 2.24489895e-06 5.09120036e-06
      -1.76394315e-06 1.48471634e-06 4.13068301e-06 -4.04893535e-06
      -1.11483121e-06 1.85938845e-07 -4.21327604e-06 -1.53752887e-06
      -3.34615123e-07 -5.76909906e-06 -3.18032562e-06 -1.81492885e-06
      -5.55018005e-06 -2.98021087e-06 -1.71725446e-06 -4.33955847e-06
      -2.00109866e-06 -1.04412925e-06 8.10282290e-06 1.01873120e-05
      1.05497156e-05 7.38229437e-06 9.58556211e-06 9.84864801e-06
      -3.43470629e-06 -2.57323677e-06 -2.87972762e-06 7.51780271e-06
      8.51032564e-06 8.38445339e-06 5.66172366e-06 6.41023007e-06
      6.56524617e-06 2.78051698e-06 3.70439693e-06 5.95914707e-06
      -1.74533197e-05 -1.47344535e-05 -6.41403801e-07 -1.68082479e-05
      -1.35252876e-05 3.31166393e-06 -1.37125571e-05 -9.70670590e-06
      7.17585544e-06 -1.44278765e-05 -1.10685396e-05 5.73968828e-06
      -1.38853784e-05 -1.04913543e-05 6.16655370e-06 -6.75306683e-06
      -5.19201785e-06 9.10224844e-06 -1.02463455e-05 -8.08210734e-06
      6.07342372e-06 -7.23508356e-06 -4.33717605e-06 7.35534923e-06
      -6.18624517e-06 -2.69033126e-06 6.59109946e-06 -8.29210421e-06
      -4.87435955e-06 4.82375162e-06 -1.19572960e-05 -8.76951253e-06
      3.03108578e-07 -1.41479004e-05 -1.07154556e-05 -2.89224818e-06
      -9.43943542e-06 -6.41732049e-06 -2.76570677e-06 -5.80981941e-06
      -3.01616933e-06 -3.88548006e-06 -3.39559438e-06 -1.77749394e-06
      -6.28469206e-06 -3.98427437e-06 -3.06925722e-06 -7.97240591e-06
      -3.26826353e-06 -2.07755807e-06 -6.40758208e-06 -3.22564642e-06
      -1.46110517e-06 -5.64184529e-06 1.80793631e-06 3.58297416e-06
      -3.26534496e-06 1.72246700e-06 3.45214903e-06 -5.75827107e-06
      4.25613689e-06 5.24752886e-06 -6.73593240e-06 1.01095911e-05
      1.09077737e-05 -6.52010431e-06 1.11894315e-05 1.09558332e-05
      -6.76353466e-06 1.33000431e-05 1.30148292e-05 -6.04212755e-06
      1.26298137e-05 1.26458190e-05 -5.67045890e-06 1.26309196e-05
      1.23704867e-05 -7.87430690e-06 1.41506807e-05 1.33325539e-05
      -8.94722143e-06 1.35156824e-05 1.28493257e-05 -9.50997673e-06
      1.16690135e-05 1.14635313e-05 -9.62571085e-06 1.15902303e-05
      1.17745458e-05 -8.47881893e-06 1.19471879e-05 1.28739284e-05
      -5.55848237e-06 1.24683011e-05 1.26054210e-05 -6.97933592e-06
      1.02535869e-05 1.05411491e-05 -8.23189384e-06 9.10175277e-06
      9.43858231e-06 -6.72870055e-06 3.69538066e-06 5.73534317e-06
      -3.96113637e-06 -1.08357028e-06 1.76028504e-06 -9.85894985e-07
      -2.44017338e-06 5.19570335e-07 2.53457370e-06 -1.28467627e-06
      1.06073071e-06 -3.01373711e-06 -5.69914846e-07 3.41475811e-07
      -6.51655500e-06 -4.14553170e-07 -7.06185475e-08 -7.77568766e-06
      -4.72463029e-07 2.55316252e-07 -5.96337213e-06 1.87425690e-06
      2.70199916e-06 -2.52844757e-06 1.16192939e-06 2.38986058e-06
      -2.79732285e-06 -6.82809230e-07 5.61100137e-07 -4.12171175e-06
      -1.76252365e-06 -3.32701475e-08 -3.17101058e-06 -3.97097256e-06
      -1.76450169e-06 -1.02988440e-06 -3.31525666e-06 -1.16933302e-06
      -6.22005246e-07 -5.90723039e-06 -3.66705171e-06 -3.21441962e-06
      2.34961976e-06 4.55959525e-06 3.35376672e-06 4.66121446e-06
      6.68970688e-06 4.79657774e-06 1.83055988e-06 4.24418204e-06
      2.65560311e-06 -7.94113816e-07 2.18278365e-06 4.14805390e-06
      -2.70608007e-06 2.32052059e-07 2.64252412e-06 -2.95015002e-06
      -2.67757542e-07 1.54306235e-06 -1.44819478e-06 1.29431123e-06
      2.55291320e-06 -3.98562315e-06 -1.65574863e-06 2.08960795e-08
      -9.85166389e-06 -7.04037029e-06 -6.18953709e-06 7.01634963e-06
      9.22821437e-06 9.82258825e-06 8.77775437e-06 1.10941792e-05
      1.13562737e-05 1.04547544e-05 1.22029369e-05 1.33194353e-05
      -2.70756573e-06 -3.00438091e-06 -4.25769895e-06 -7.72560725e-06
      -8.23680421e-06 -8.77434104e-06 -1.30376729e-05 -1.35528253e-05
      -1.39192734e-05 -1.37380612e-05 -1.34548909e-05 -1.19375145e-05
      -1.74881461e-05 -1.56251226e-05 -2.02170145e-06 -1.74110010e-05
      -1.45347194e-05 2.14778083e-06 -1.92919033e-05 -1.67092094e-05
      1.08638268e-07 -1.97875343e-05 -1.77153688e-05 -7.47561387e-07
      -1.77411985e-05 -1.56310871e-05 1.01540752e-06 -1.95020166e-05
      -1.66034879e-05 -2.94794432e-07 -8.01446458e-06 -5.48177104e-06
      8.75480691e-06 -9.63212187e-06 -6.81490565e-06 5.52650090e-06
      -6.39858399e-06 -3.29031627e-06 5.75048352e-06 -6.47654906e-06
      -3.02693616e-06 6.30409886e-06 -9.61032492e-06 -6.07922038e-06
      3.51308472e-06 -9.72052840e-06 -6.76327727e-06 1.67594663e-07
      -1.04300516e-05 -8.31631041e-06 -4.32265324e-06 -4.97766541e-06
      -2.59927538e-06 -1.61083028e-06 -2.38774646e-06 -5.83848703e-07
      -5.09769279e-06 -4.50265543e-06 -3.21123116e-06 -8.00757789e-06
      -2.93559197e-06 -2.01549165e-06 -6.84142515e-06 -1.55937846e-06
      -5.58821284e-07 -5.74212527e-06 3.02921308e-06 3.81328528e-06
      -4.77622598e-06 9.26539030e-07 1.73223521e-06 -7.67725851e-06
      7.91814273e-06 8.24794552e-06 -6.79996901e-06 7.72185558e-06
      8.51508139e-06 -7.58246051e-06 8.78391529e-06 8.85714144e-06
      -6.90543675e-06 1.03016719e-05 1.02656386e-05 -6.69001338e-06
      1.18840044e-05 1.16839401e-05 -5.96096470e-06 1.24885391e-05
      1.20143832e-05 -8.50351171e-06 1.34537313e-05 1.26386249e-05
      -9.16928911e-06 1.38367377e-05 1.28424817e-05 -8.71521024e-06
      1.26108134e-05 1.21165058e-05 -8.91407944e-06 1.14059631e-05
      1.18884600e-05 -8.01583428e-06 1.22290285e-05 1.30898015e-05
      -5.93424011e-06 1.22300698e-05 1.37414963e-05 -3.90309788e-06
      9.04833541e-06 1.07816722e-05 -5.63674030e-06 8.33988088e-06
      8.98520830e-06 -7.11214307e-06 3.36754124e-06 4.08792766e-06
      -6.96596317e-06 1.20879895e-06 3.11186432e-06 -2.74575314e-06
      -2.15820342e-06 6.18311958e-07 1.38386281e-06 -3.12177622e-06
      -1.06126015e-06 -3.24658890e-06 -7.71774410e-07 3.37217870e-07
      -5.98235056e-06 -1.58730802e-06 -1.21415530e-06 -9.26963185e-06
      -6.78930792e-06 -5.61545994e-06 -1.17973841e-05 -3.06745369e-06
      -2.00324962e-06 -7.97381381e-06 -2.63289439e-06 -1.26211717e-06
      -7.16869499e-06 -1.70321471e-06 -5.42179919e-07 -6.12108443e-06
      -1.72187401e-06 -3.02795229e-07 -5.63658705e-06 -3.40271549e-06
      -1.27956287e-06 -1.68296867e-06 -1.04973105e-06 9.12341307e-07
      5.21502329e-07 -2.69361612e-06 -4.14597821e-07 -8.61507147e-07
      -9.63096340e-07 1.22554854e-06 3.02561915e-07 -3.83571341e-06
      -1.90574826e-06 -3.67864845e-06 -2.03024342e-07 2.27417809e-06
      -2.96602849e-07 -3.81730979e-06 -1.24426163e-06 -1.67151484e-06
      -5.27728253e-06 -2.59254807e-06 -1.58794489e-06 -3.29031650e-06
      -6.30832346e-07 1.34172683e-06 1.57308955e-06 4.51720416e-06
      5.65319033e-06 -9.29482121e-06 -6.96751204e-06 -5.47282752e-06
      4.15875184e-06 6.94777646e-06 7.61945830e-06 5.35272648e-06
      7.64498054e-06 8.46772855e-06 4.41618477e-06 6.89140461e-06
      8.57797568e-06 -1.43431475e-06 1.14043576e-06 2.12378404e-06
      -9.21512424e-07 -1.59611602e-06 -3.12499287e-06 3.37400820e-06
      2.83207146e-06 1.74934235e-06 1.78505627e-06 1.18922037e-06
      1.22488203e-07 1.71560248e-06 1.85082649e-06 2.09640416e-06
      -7.28230862e-06 -5.27493739e-06 6.24056020e-06 -1.61489752e-05
      -1.34348993e-05 2.05358492e-06 -1.75733949e-05 -1.51814047e-05
      4.67520749e-07 -1.78157370e-05 -1.56693113e-05 5.31738010e-07
      -1.58170496e-05 -1.37176467e-05 2.75822504e-06 -1.48638928e-05
      -1.23385016e-05 4.26720862e-06 -1.40405691e-05 -1.15769953e-05
      3.83545330e-06 -9.41281814e-06 -6.85026771e-06 5.81451695e-06
      -8.15991370e-06 -5.65051687e-06 4.97243991e-06 -1.00657098e-05
      -7.26357666e-06 1.31779666e-06 -5.67716324e-06 -3.29056911e-06
      1.10310123e-06 -6.59000079e-06 -5.75565264e-06 -7.66494577e-06
      -4.87854231e-06 -4.14417400e-06 -8.00710222e-06 -4.18623495e-06
      -2.91596962e-06 -6.54757650e-06 -3.44379328e-06 -2.07660469e-06
      -6.80453832e-06 -2.55974942e-06 -1.90273852e-06 -6.60890146e-06
      -2.57035435e-06 -1.68373754e-06 -6.60547494e-06 1.73933117e-07
      8.91832656e-07 -6.27945565e-06 3.84231953e-06 4.54090150e-06
      -5.42707812e-06 3.93047048e-06 4.53649409e-06 -6.57553937e-06
      6.40028702e-06 6.72989063e-06 -7.65146706e-06 7.44771705e-06
      7.17615148e-06 -7.73236570e-06 8.72335841e-06 7.98027031e-06
      -8.58301701e-06 9.38603444e-06 8.50874585e-06 -8.13286351e-06
      1.04512255e-05 9.69000666e-06 -8.89859439e-06 1.23316067e-05
      1.10263454e-05 -1.04412702e-05 1.21704979e-05 1.06511852e-05
      -1.09436796e-05 1.23009295e-05 1.10598057e-05 -1.07116030e-05
      1.19294418e-05 1.09417178e-05 -1.04158453e-05 1.08035729e-05
      1.05120935e-05 -9.92637888e-06 1.09425282e-05 1.02439271e-05
      -1.04057272e-05 1.30556937e-05 1.36324343e-05 -6.23307278e-06
      1.29257924e-05 1.39357116e-05 -5.18797879e-06 8.91333093e-06
      1.00558809e-05 -6.33584614e-06 3.21826383e-06 3.46154411e-06
      -8.39499444e-06 -1.60878437e-06 -8.48790975e-08 -7.09321648e-06
      -4.38913821e-06 -2.47205821e-06 -1.10001270e-06 -4.57075384e-06
      -2.34927393e-06 -3.18158686e-06 -5.66942663e-06 -5.09323854e-06
      -1.01033011e-05 -6.40131157e-06 -5.57875546e-06 -1.36378494e-05
      -1.01116211e-05 -9.02044667e-06 -1.49004782e-05 -8.45543218e-06
      -7.13875079e-06 -1.29805276e-05 -5.07523600e-06 -3.72248792e-06
      -9.80604909e-06 -5.58107604e-06 -4.27450141e-06 -1.02471622e-05
      -4.99906719e-06 -3.61205321e-06 -9.48815159e-06 -7.50900517e-06
      -5.18282513e-06 -7.42153134e-06 -6.08116625e-06 -4.15308568e-06
      -4.29193369e-06 -5.42213593e-06 -3.13266628e-06 -3.69162149e-06
      -4.87387297e-06 -2.66782104e-06 -4.03672266e-06 7.18549529e-07
      2.93143626e-06 2.61412055e-07 -1.31303102e-06 1.50418464e-06
      -1.30970784e-06 -3.84349005e-06 -1.13150998e-06 -1.78414621e-06
      -7.23764742e-06 -4.76569494e-06 -3.79887547e-06 -9.09257778e-06
      -6.68721259e-06 -5.89243837e-06 -7.62485752e-06 -5.15088141e-06
      -4.00454019e-06 7.56530517e-06 1.03980019e-05 1.07900360e-05
      9.26475877e-06 1.15724479e-05 1.17167465e-05 9.02358533e-06
      1.15526973e-05 1.26292962e-05 8.53502206e-06 1.09724069e-05
      1.22329466e-05 1.61070534e-06 4.04576122e-06 4.90423145e-06
      4.18097170e-06 3.09289999e-06 1.79321330e-06 4.95485892e-06
      4.01857051e-06 3.29696559e-06 7.02960870e-06 6.15317595e-06
      5.28349847e-06 6.36090726e-06 5.37348797e-06 5.57870953e-06
      -1.97098962e-06 -1.39860867e-06 8.61400622e-06 -1.27582177e-06
      -6.96480640e-07 1.29136515e-05 -2.32258299e-06 -1.13099543e-06
      1.39098847e-05 -6.84993074e-06 -5.60185799e-06 1.01833684e-05
      -1.75197674e-05 -1.65646106e-05 1.39002097e-07 -1.42586932e-05
      -1.30352728e-05 2.88100614e-06 -1.56486167e-05 -1.40134243e-05
      1.00853151e-06 -1.53274977e-05 -1.29231148e-05 8.03674254e-07
      -1.05437230e-05 -7.75374428e-06 2.11336010e-06 -1.04044639e-05
      -7.83356609e-06 1.24231383e-06 -4.14379701e-06 -2.37465110e-06
      1.32714570e-06 -2.44218973e-06 -1.77907100e-06 -4.90124967e-06
      -2.22692688e-06 -1.91896629e-06 -6.98510166e-06 -6.38611436e-06
      -6.63170295e-06 -1.14435497e-05 -4.77682761e-06 -4.53243956e-06
      -9.04940134e-06 -4.31390072e-06 -4.07420566e-06 -8.89895364e-06
      -3.58953957e-06 -3.38256632e-06 -8.92559001e-06 1.23038387e-06
      1.34266656e-06 -7.76932211e-06 5.12912834e-07 8.08904360e-07
      -9.39077654e-06 2.56415728e-06 2.32547632e-06 -1.01546448e-05
      3.63532808e-06 2.63746801e-06 -1.20014492e-05 3.27933026e-06
      2.32613888e-06 -1.32084269e-05 7.49341098e-06 6.03086528e-06
      -1.13061305e-05 6.83112330e-06 5.29684621e-06 -1.19072674e-05
      9.29628095e-06 8.05751006e-06 -1.19265897e-05 1.18965345e-05
      9.80920595e-06 -1.15449575e-05 1.11278223e-05 9.54570532e-06
      -1.14367176e-05 1.11754443e-05 9.38600260e-06 -1.20462182e-05
      1.12386715e-05 9.70394831e-06 -1.13436599e-05 9.21740593e-06
      8.27883196e-06 -1.20021605e-05 9.88434113e-06 8.72103374e-06
      -1.24534236e-05 1.07561727e-05 9.63975708e-06 -1.21578287e-05
      1.08850327e-05 1.09781404e-05 -7.57095086e-06 8.92960907e-06
      9.18735259e-06 -8.37214884e-06 4.88336627e-06 4.60909087e-06
      -1.17182572e-05 3.65383471e-06 3.14017962e-06 -1.39150216e-05
      4.00336688e-07 -4.65856829e-07 -1.02030999e-05 -9.81336825e-08
      -2.61451127e-08 -2.32742309e-06 -5.53019618e-06 -5.09594929e-06
      -8.17941509e-06 -3.58172883e-06 -2.89491368e-06 -8.65928814e-06
      -4.36552364e-06 -3.44087562e-06 -9.39012716e-06 -4.29162583e-06
      -3.38488076e-06 -9.37108234e-06 -3.33028697e-06 -2.53750704e-06
      -8.74100533e-06 -5.30478519e-06 -4.42557121e-06 -1.04338023e-05
      -5.86221859e-06 -5.05113803e-06 -1.08711292e-05 -3.48302115e-06
      -2.63626703e-06 -6.86127760e-06 -5.88968760e-06 -4.25890767e-06
      -4.82373162e-06 -9.00117357e-06 -6.78560718e-06 -7.68753398e-06
      -8.83235953e-06 -6.58587032e-06 -7.43233704e-06 7.48913067e-07
      2.74072022e-06 8.70870238e-08 -9.30235302e-08 2.00422710e-06
      -2.59604633e-07 -4.14146461e-06 -1.76088599e-06 -3.03583693e-06
      -6.54809310e-06 -3.95973120e-06 -3.37114898e-06 -7.73791908e-06
      -5.33887942e-06 -4.25403687e-06 -5.52348774e-06 -3.40026600e-06
      -2.78215316e-06 -4.28797421e-06 -2.61674018e-06 -3.50357004e-06
      -3.01693990e-06 -8.31291345e-07 -5.50298580e-07 -3.58595435e-06
      -1.15292573e-06 6.36560969e-07 1.33875292e-05 1.57704253e-05
      1.64708163e-05 5.40384372e-06 7.68506834e-06 8.45297382e-06
      6.31518424e-06 5.22160781e-06 3.86209103e-06 5.78612480e-06
      4.61205627e-06 3.46897650e-06 5.45142893e-06 4.27972282e-06
      3.18093475e-06 2.80363770e-06 1.61005482e-06 1.23850577e-06
      -4.88576552e-06 -4.93427842e-06 3.44630985e-06 -6.66482083e-06
      -6.52131575e-06 6.42015311e-06 -6.83286180e-06 -6.02463479e-06
      8.79042545e-06 -3.31960064e-06 -3.29521981e-06 1.26860432e-05
      -2.06035861e-06 -1.89460593e-06 1.34991669e-05 -3.61847242e-07
      1.01117465e-07 1.58730363e-05 -2.57839304e-07 2.01917075e-07
      1.34224128e-05 -1.53736596e-06 -1.66089615e-06 2.56877411e-06
      -1.62986123e-06 -1.31734907e-06 -1.30978952e-08 -1.83565362e-06
      -7.08987045e-07 4.31908660e-07 -6.40719918e-07 2.06567549e-07
      6.13051100e-07 -2.22357062e-06 -1.80980408e-06 -4.35563561e-06
      -1.59040769e-06 -2.33967262e-06 -7.59311251e-06 -5.24455891e-06
      -5.66394965e-06 -1.08811446e-05 -3.33755861e-06 -3.41166492e-06
      -8.43855196e-06 -3.66776908e-06 -3.65925189e-06 -8.74824946e-06
      -1.60393427e-06 -1.32264563e-06 -8.45892919e-06 1.93267988e-06
      2.00268414e-06 -7.71205760e-06 5.90161051e-07 1.46191169e-07
      -9.84582675e-06 4.39561700e-06 3.67849998e-06 -9.67559936e-06
      7.56739064e-06 6.31584953e-06 -8.82584663e-06 6.51601613e-06
      5.14102931e-06 -1.09106504e-05 8.50775814e-06 6.69845804e-06
      -1.03907851e-05 8.81437518e-06 7.17571947e-06 -1.06375373e-05
      9.06957484e-06 7.55599376e-06 -1.32282803e-05 1.06067164e-05
      8.67634662e-06 -1.25900106e-05 1.07834812e-05 8.95640824e-06
      -1.25964125e-05 1.02163776e-05 8.06488242e-06 -1.30918779e-05
      1.12755324e-05 9.56512849e-06 -1.18746193e-05 8.55420603e-06
      7.62098080e-06 -1.28430156e-05 1.05732461e-05 9.03698947e-06
      -1.22936490e-05 1.10675956e-05 9.22283380e-06 -1.24395137e-05
      1.01658288e-05 8.55954477e-06 -1.14114755e-05 9.50194408e-06
      8.71295379e-06 -8.82337554e-06 6.87746024e-06 6.17664000e-06
      -9.05927664e-06 7.33601382e-06 6.38234314e-06 -1.01422766e-05
      6.99308202e-06 4.79924574e-06 -1.04617211e-05 8.52645371e-06
      6.95839981e-06 -1.00191728e-05 8.73202498e-06 6.23357892e-06
      -1.30541575e-05 -1.37485154e-06 -2.17360252e-06 -1.63743935e-05
      -3.96762289e-06 -3.34052447e-06 -1.18544958e-05 -7.38153858e-06
      -6.23540654e-06 -1.15045486e-05 -6.36725417e-06 -5.11916141e-06
      -9.37545337e-06 -6.86550311e-06 -5.49574725e-06 -9.54272400e-06
      -5.03866750e-06 -3.43961665e-06 -8.04962656e-06 -2.97439283e-06
      -1.68538929e-06 -6.76562013e-06 6.13876637e-07 2.65687299e-06
      1.13469503e-06 -3.84459508e-06 -1.61567414e-06 -2.20197171e-06
      -1.24486241e-05 -9.79448487e-06 -1.02574186e-05 -1.09109078e-05
      -8.68607549e-06 -8.98555845e-06 -1.17726731e-05 -9.58521377e-06
      -1.03878265e-05 -6.79350387e-06 -4.70438499e-06 -6.17423348e-06
      -7.76310389e-06 -5.25678388e-06 -5.39136090e-06 -6.16954776e-06
      -3.56417740e-06 -3.19086416e-06 -3.97540316e-06 -1.40057284e-06
      -1.56841281e-06 1.10304427e-05 1.21173562e-05 1.10368119e-05
      1.34392903e-05 1.45309223e-05 1.32696887e-05 1.12302700e-06
      3.12573479e-06 4.23940855e-06 1.51231745e-06 3.44336559e-06
      4.62597700e-06 4.29641841e-06 5.86761053e-06 6.18418107e-06
      1.42262543e-05 1.31559418e-05 1.12562802e-05 1.54634690e-05
      1.42100207e-05 1.28939701e-05 1.39676158e-05 1.24796725e-05
      1.13375554e-05 1.24630760e-05 1.09443681e-05 9.78336902e-06
      5.13157192e-06 4.87519173e-06 1.28449037e-05 3.69215854e-06
      3.82248118e-06 1.60248528e-05 2.08921233e-06 2.06738264e-06
      1.68669048e-05 2.01429339e-06 2.27654755e-06 1.71888714e-05
      7.54950747e-07 9.54001052e-07 1.58577077e-05 1.80953452e-06
      2.31335184e-06 1.69188825e-05 -5.20455558e-07 -1.94665574e-07
      1.43097786e-05 -4.31481067e-06 -4.36398477e-06 8.37444350e-06
      -4.11286919e-06 -4.27261921e-06 -1.75919286e-06 -2.50276685e-06
      -2.85670899e-06 -2.51621941e-06 -2.01050852e-06 -2.55211626e-06
      -3.51834501e-06 -2.47164706e-07 -1.00981947e-06 -4.64186905e-06
      -1.08163454e-06 -2.31502781e-06 -7.21949846e-06 -4.91801666e-06
      -6.11120731e-06 -1.13570413e-05 -4.30456248e-06 -5.26611075e-06
      -9.84142662e-06 -2.66536949e-06 -4.21001869e-06 -8.37338303e-06
      -4.45050000e-06 -7.17576268e-06 -1.45955955e-05 -1.43846637e-06
      -4.50190146e-06 -1.57403156e-05 -1.02682982e-08 -3.03045044e-06
      -1.51473059e-05 3.71389842e-06 2.99074600e-07 -1.54528443e-05
      6.24788026e-06 3.99993996e-06 -1.16704741e-05 6.18090507e-06
      4.06949584e-06 -1.24357930e-05 7.84108852e-06 5.72417775e-06
      -1.12090638e-05 7.96520908e-06 6.45656110e-06 -1.22094089e-05
      1.02423946e-05 8.25427196e-06 -1.21786607e-05 9.69300800e-06
      7.72677868e-06 -1.31568286e-05 1.18582484e-05 9.78214575e-06
      -1.14684362e-05 1.06822181e-05 8.56850056e-06 -1.25849683e-05
      1.13472752e-05 9.17471698e-06 -1.21591820e-05 1.05295348e-05
      8.64124377e-06 -1.24340659e-05 1.15112289e-05 9.47003718e-06
      -1.20036739e-05 1.31589131e-05 1.05263352e-05 -1.14922505e-05
      1.17827176e-05 9.33326828e-06 -1.20435670e-05 1.01564910e-05
      8.81380038e-06 -1.09276561e-05 6.45077262e-06 5.11945746e-06
      -1.28049978e-05 2.55062901e-06 6.37298740e-07 -1.47323153e-05
      5.75847616e-06 2.28972544e-06 -1.53259589e-05 2.18761488e-06
      8.68904309e-08 -1.47889978e-05 -2.28204249e-06 -4.54217798e-06
      -1.98922316e-05 7.33266518e-07 -2.06258824e-06 -2.06474142e-05
      4.98927602e-06 1.94882955e-06 -1.88067806e-05 3.64579250e-06
      2.72997795e-06 -1.33346484e-05 -8.39265795e-06 -7.13345344e-06
      -1.27928397e-05 -8.52971243e-06 -7.53330460e-06 -1.19912202e-05
      -8.69988980e-06 -7.37890514e-06 -1.14148888e-05 -7.70258157e-06
      -6.82556538e-06 -1.03350249e-05 -1.26120940e-05 -1.06277403e-05
      -1.13365522e-05 -1.33677622e-05 -1.09231023e-05 -9.17819852e-06
      -1.30206499e-05 -1.03083948e-05 -9.78620756e-06 -1.09142220e-05
      -8.60415912e-06 -9.42626684e-06 -8.78910760e-06 -6.91422156e-06
      -8.70422809e-06 -7.89163369e-06 -5.89572119e-06 -7.27483530e-06
      -6.87828242e-06 -4.84596194e-06 -4.83602025e-06 -3.01818068e-06
      -1.07352560e-06 -4.96934206e-07 5.20773119e-06 6.24007134e-06
      5.87071690e-06 1.22310830e-05 1.24866301e-05 1.22710244e-05
      1.69299292e-05 1.69395025e-05 1.59443389e-05 1.29969958e-05
      1.35756782e-05 1.40673210e-05 1.88844861e-05 1.95755638e-05
      1.90387545e-05 2.26513657e-05 2.33000064e-05 2.24963824e-05
      9.07063986e-06 7.69911276e-06 6.59426178e-06 1.10160827e-05
      9.28511236e-06 8.33048489e-06 1.17707013e-05 9.33585852e-06
      7.82111329e-06 9.48123852e-06 6.89124681e-06 5.75117656e-06
      5.35153561e-07 -3.91048815e-07 7.51348034e-06 -2.45093793e-06
      -2.70460600e-06 8.77217008e-06 -4.19836397e-06 -4.03863260e-06
      1.01629248e-05 -6.31824196e-06 -6.03993931e-06 8.75764727e-06
      -4.56109001e-06 -4.18261880e-06 1.04418723e-05 -1.85201839e-06
      -1.56646490e-06 1.26602008e-05 6.73674367e-06 7.76201614e-06
      2.13968033e-05 5.25675205e-06 5.65191704e-06 1.81071719e-05
      7.43948658e-06 8.14033774e-06 1.84341534e-05 2.01625335e-06
      1.14678517e-06 3.67524103e-06 -2.29830812e-06 -4.20878951e-06
      -6.89836133e-06 -2.51845381e-06 -4.54012979e-06 -9.17461421e-06
      -8.99767770e-07 -2.60314437e-06 -7.77537571e-06 3.24542810e-08
      -2.03838067e-06 -7.72703424e-06 -4.85642613e-06 -7.63270509e-06
      -1.43614898e-05 -2.47510843e-06 -5.15330703e-06 -1.39386675e-05
      4.02860820e-07 -2.01102557e-06 -1.19928982e-05 3.77524628e-07
      -1.35455252e-06 -1.25784218e-05 7.67003144e-07 -1.13485635e-06
      -1.28400206e-05 3.59159549e-06 6.54973633e-07 -1.54827267e-05
      5.08277753e-06 2.30123328e-06 -1.47662195e-05 5.24167899e-06
      2.75565094e-06 -1.48424042e-05 6.54708765e-06 4.08117194e-06
      -1.35414457e-05 9.81484027e-06 7.26040435e-06 -1.33697986e-05
      1.10604260e-05 8.19699835e-06 -1.29353011e-05 1.03691027e-05
      7.63079606e-06 -1.36564659e-05 1.13170245e-05 8.89461990e-06
      -1.29697137e-05 1.04741794e-05 8.03046260e-06 -1.36231256e-05
      1.02941540e-05 7.89486785e-06 -1.36470953e-05 1.00210509e-05
      7.98466408e-06 -1.35361097e-05 1.01597889e-05 8.08093682e-06
      -1.39576168e-05 1.11167592e-05 8.47623505e-06 -1.49083107e-05
      9.65115123e-06 6.52695280e-06 -1.60951458e-05 8.99674433e-06
      6.53398047e-06 -1.57557315e-05 7.81710423e-06 5.70480370e-06
      -1.34149886e-05 4.34105095e-06 3.35570166e-06 -1.07357864e-05
      5.02807916e-06 3.83822135e-06 -8.59666761e-06 3.11462986e-06
      2.17143111e-06 -4.50010157e-06 -1.52632026e-06 -2.93086669e-06
      -1.03018119e-05 -1.67271523e-07 -4.70978932e-07 -7.23493713e-06
      -1.81057942e-08 -5.44161651e-07 -8.20024434e-06 -2.35989660e-07
      -1.62257194e-07 -7.22866298e-06 1.12254133e-06 1.51256734e-06
      -5.05712660e-06 3.87159798e-06 3.63017375e-06 -1.95764505e-06
      5.73133957e-06 5.42688076e-06 -2.54130100e-07 1.30058279e-05
      1.23660348e-05 6.93414404e-06 8.51025470e-06 8.16506417e-06
      4.49346589e-06 7.22123150e-06 7.83385167e-06 7.21873766e-06
      6.57861528e-06 7.53297309e-06 6.73274371e-06 -3.00190595e-06
      -3.19476794e-06 -3.39948838e-06 8.86352973e-06 9.83337122e-06
      9.57360044e-06 8.51139521e-06 1.01387204e-05 9.82518122e-06
      -3.81089126e-06 -3.12582119e-06 -2.96606549e-06 -1.92413222e-06
      -2.13996623e-06 -1.94746667e-06 -3.31193132e-06 -3.68201836e-06
      -3.55672591e-06 -1.78263520e-06 -1.54460088e-06 -1.73756405e-06
      1.41321721e-06 1.45215267e-06 1.26341513e-06 4.04290677e-06
      4.30280124e-06 3.73262606e-06 1.55995058e-05 1.63838376e-05
      1.59704032e-05 1.93130418e-05 1.96591900e-05 1.90802257e-05
      1.18689004e-05 1.04292212e-05 9.21212813e-06 1.11568015e-05
      9.15607143e-06 7.48868388e-06 1.42450999e-05 1.26041623e-05
      1.05993495e-05 1.41663440e-05 1.23939381e-05 1.05498211e-05
      4.51700726e-06 3.96801033e-06 1.12158123e-05 8.67495032e-07
      9.27429198e-07 1.21903940e-05 -8.83605537e-07 -4.90608898e-07
      1.37588177e-05 -4.10586017e-06 -3.65859728e-06 1.11607778e-05
      -4.70078930e-06 -4.39184532e-06 1.05000772e-05 -1.08819245e-06
      -8.12368228e-07 1.28782585e-05 1.80011693e-06 2.10405938e-06
      1.57523555e-05 6.26778092e-06 6.80813628e-06 1.88309768e-05
      3.19104061e-06 3.45090439e-06 1.36858416e-05 3.82107419e-06
      3.42415387e-06 1.30257522e-05 4.53357188e-06 3.67565258e-06
      8.40046778e-06 1.08861150e-06 -2.15297155e-06 -7.61893216e-06
      -7.99818281e-07 -3.93642904e-06 -1.04444780e-05 -2.01004627e-06
      -5.62525793e-06 -1.22817619e-05 -2.91494712e-06 -6.78610741e-06
      -1.29762848e-05 -1.66900222e-07 -3.09762481e-06 -1.14554123e-05
      1.18713365e-06 -1.79204972e-06 -1.18032776e-05 -1.16283877e-06
      -3.61664024e-06 -1.43286688e-05 1.95056032e-06 -7.45296973e-07
      -1.32717842e-05 4.16490593e-06 5.98800398e-07 -1.54060563e-05
      5.33550156e-06 2.05551555e-06 -1.54949521e-05 5.78473146e-06
      2.81486177e-06 -1.56289316e-05 6.30256091e-06 3.01930208e-06
      -1.58163402e-05 7.91875573e-06 4.92693744e-06 -1.63532604e-05
      5.73917896e-06 2.89576519e-06 -1.74200868e-05 6.11652968e-06
      3.05747812e-06 -1.75052101e-05 6.40977441e-06 3.82937696e-06
      -1.69225841e-05 7.43700502e-06 5.59422006e-06 -1.45208724e-05
      1.08887170e-05 9.16577483e-06 -7.43381315e-06 1.31894185e-05
      1.28446491e-05 -1.17711227e-06 1.27510220e-05 1.22254678e-05
